{"learner":{"attributes":{"scikit_learn":"{\"_estimator_type\": \"classifier\"}"},"feature_names":["Air temperature","Process temperature","Rotational speed","Torque","Tool wear","Type_H","Type_L","Type_M"],"feature_types":["float","float","int","float","int","int","int","int"],"gradient_booster":{"model":{"cats":{"enc":[],"feature_segments":[],"sorted_idx":[]},"gbtree_model_param":{"num_parallel_tree":"1","num_trees":"600"},"iteration_indptr":[0,6,12,18,24,30,36,42,48,54,60,66,72,78,84,90,96,102,108,114,120,126,132,138,144,150,156,162,168,174,180,186,192,198,204,210,216,222,228,234,240,246,252,258,264,270,276,282,288,294,300,306,312,318,324,330,336,342,348,354,360,366,372,378,384,390,396,402,408,414,420,426,432,438,444,450,456,462,468,474,480,486,492,498,504,510,516,522,528,534,540,546,552,558,564,570,576,582,588,594,600],"tree_info":[0,1,2,3,4,5,0,1,2,3,4,5,0,1,2,3,4,5,0,1,2,3,4,5,0,1,2,3,4,5,0,1,2,3,4,5,0,1,2,3,4,5,0,1,2,3,4,5,0,1,2,3,4,5,0,1,2,3,4,5,0,1,2,3,4,5,0,1,2,3,4,5,0,1,2,3,4,5,0,1,2,3,4,5,0,1,2,3,4,5,0,1,2,3,4,5,0,1,2,3,4,5,0,1,2,3,4,5,0,1,2,3,4,5,0,1,2,3,4,5,0,1,2,3,4,5,0,1,2,3,4,5,0,1,2,3,4,5,0,1,2,3,4,5,0,1,2,3,4,5,0,1,2,3,4,5,0,1,2,3,4,5,0,1,2,3,4,5,0,1,2,3,4,5,0,1,2,3,4,5,0,1,2,3,4,5,0,1,2,3,4,5,0,1,2,3,4,5,0,1,2,3,4,5,0,1,2,3,4,5,0,1,2,3,4,5,0,1,2,3,4,5,0,1,2,3,4,5,0,1,2,3,4,5,0,1,2,3,4,5,0,1,2,3,4,5,0,1,2,3,4,5,0,1,2,3,4,5,0,1,2,3,4,5,0,1,2,3,4,5,0,1,2,3,4,5,0,1,2,3,4,5,0,1,2,3,4,5,0,1,2,3,4,5,0,1,2,3,4,5,0,1,2,3,4,5,0,1,2,3,4,5,0,1,2,3,4,5,0,1,2,3,4,5,0,1,2,3,4,5,0,1,2,3,4,5,0,1,2,3,4,5,0,1,2,3,4,5,0,1,2,3,4,5,0,1,2,3,4,5,0,1,2,3,4,5,0,1,2,3,4,5,0,1,2,3,4,5,0,1,2,3,4,5,0,1,2,3,4,5,0,1,2,3,4,5,0,1,2,3,4,5,0,1,2,3,4,5,0,1,2,3,4,5,0,1,2,3,4,5,0,1,2,3,4,5,0,1,2,3,4,5,0,1,2,3,4,5,0,1,2,3,4,5,0,1,2,3,4,5,0,1,2,3,4,5,0,1,2,3,4,5,0,1,2,3,4,5,0,1,2,3,4,5,0,1,2,3,4,5,0,1,2,3,4,5,0,1,2,3,4,5,0,1,2,3,4,5,0,1,2,3,4,5,0,1,2,3,4,5,0,1,2,3,4,5,0,1,2,3,4,5,0,1,2,3,4,5,0,1,2,3,4,5,0,1,2,3,4,5,0,1,2,3,4,5,0,1,2,3,4,5,0,1,2,3,4,5,0,1,2,3,4,5,0,1,2,3,4,5,0,1,2,3,4,5,0,1,2,3,4,5,0,1,2,3,4,5,0,1,2,3,4,5,0,1,2,3,4,5],"trees":[{"base_weights":[-4.414729E-5,3.0958512E0,-1.505799E-1,-3.6788285E-1,1.2297317E1,-1.4270674E-1,1.8980218E-1,4.904312E0,1.2818536E-1],"categories":[],"categories_nodes":[],"categories_segments":[],"categories_sizes":[],"default_left":[0,0,0,0,0,0,0,0,0],"id":0,"left_children":[1,3,-1,5,7,-1,-1,-1,-1],"loss_changes":[2.6446204E2,7.612584E2,0E0,2.2663732E0,3.0660443E2,0E0,0E0,0E0,0E0],"parents":[2147483647,0,0,1,1,3,3,4,4],"right_children":[2,4,-1,6,8,-1,-1,-1,-1],"split_conditions":[1.38E3,3.016E2,-1.505799E-1,6.2E1,3.121E2,-1.4270674E-1,1.8980218E-1,4.904312E0,1.2818536E-1],"split_indices":[2,0,0,3,1,0,0,0,0],"split_type":[0,0,0,0,0,0,0,0,0],"sum_hessian":[1.6820386E2,2.2743353E1,1.454605E2,1.7220871E1,5.5224824E0,1.6019415E1,1.2014561E0,3.8362281E0,1.6862541E0],"tree_param":{"num_deleted":"0","num_feature":"8","num_nodes":"9","size_leaf_vector":"1"}},{"base_weights":[7.701348E-5,1.87047E-1,-3.1057854E0,-2.4423144E0,2.3857233E-1,-2.0654678E0,-2.5938478E0,3.426924E-1,-1.3994591E0,-6.758358E-1,-1.7620637E0,-8.557745E-1,4.7322226E-1,-9.5396906E-1,-1.3642993E0,2.2905676E-1,-3.3709276E0,1.5036622E-1,-4.582846E0,-1.3170561E-1,4.7803766E-1,-6.002152E-1,-1.8326296E0,1.4410785E-1,-3.8534877E-1,-4.4700913E0,-1.4607129E-1,-1.8567315E0,-2.7310468E-2,1.4555709E-1,-4.5110665E-2,-2.9042486E-2,-5.628914E-1,-7.6578975E-1,-1.878155E-1,-1.5817362E0,-3.711597E-1],"categories":[],"categories_nodes":[],"categories_segments":[],"categories_sizes":[],"default_left":[0,0,0,0,0,0,0,0,0,0,0,0,0,0,0,0,0,0,0,0,0,0,0,0,0,0,0,0,0,0,0,0,0,0,0,0,0],"id":1,"left_children":[1,3,5,-1,7,9,-1,11,13,15,-1,17,19,21,-1,23,25,-1,27,-1,29,31,33,-1,-1,35,-1,-1,-1,-1,-1,-1,-1,-1,-1,-1,-1],"loss_changes":[2.9224484E2,2.0563301E2,1.4684406E2,0E0,8.110584E1,1.3029489E2,0E0,7.00638E1,3.5562565E1,4.886156E1,0E0,2.2529132E2,1.9766388E0,7.040228E0,0E0,6.588139E0,1.3737377E1,0E0,8.50565E1,0E0,1.8733978E0,1.2767983E1,4.5093327E0,0E0,0E0,2.5883865E0,0E0,0E0,0E0,0E0,0E0,0E0,0E0,0E0,0E0,0E0,0E0],"parents":[2147483647,0,0,1,1,2,2,4,4,5,5,7,7,8,8,9,9,11,11,12,12,13,13,15,15,16,16,18,18,20,20,21,21,22,22,25,25],"right_children":[2,4,6,-1,8,10,-1,12,14,16,-1,18,20,22,-1,24,26,-1,28,-1,30,32,34,-1,-1,36,-1,-1,-1,-1,-1,-1,-1,-1,-1,-1,-1],"split_conditions":[5.56E1,1.37E1,1.89E2,-2.4423144E0,2.05E2,6.2E1,-2.5938478E0,1.38E3,5.01E1,3.016E2,-1.7620637E0,3.016E2,1.57E1,3.017E2,-1.3642993E0,1.399E3,3.116E2,1.5036622E-1,3.122E2,-1.3170561E-1,2.03E2,2.2E2,1.531E3,1.4410785E-1,-3.8534877E-1,1.367E3,-1.4607129E-1,-1.8567315E0,-2.7310468E-2,1.4555709E-1,-4.5110665E-2,-2.9042486E-2,-5.628914E-1,-7.6578975E-1,-1.878155E-1,-1.5817362E0,-3.711597E-1],"split_indices":[3,3,4,0,4,3,0,2,3,0,0,0,3,0,0,2,1,0,1,0,4,4,2,0,0,2,0,0,0,0,0,0,0,0,0,0,0],"split_type":[0,0,0,0,0,0,0,0,0,0,0,0,0,0,0,0,0,0,0,0,0,0,0,0,0,0,0,0,0,0,0,0,0,0,0,0,0],"sum_hessian":[5.0126004E2,4.7368445E2,2.7575584E1,1.9472507E0,4.717372E2,2.4372042E1,3.2035415E0,4.4428726E2,2.7449955E1,1.8718733E1,5.653309E0,4.3090775E1,4.0119647E2,2.5188631E1,2.2613235E0,1.4698603E1,4.0201306E0,3.2223858E1,1.0866916E1,1.6331781E0,3.995633E2,1.9158436E1,6.030196E0,1.3191053E1,1.507549E0,2.5125816E0,1.507549E0,7.7261887E0,3.140727E0,3.952919E2,4.271389E0,1.4510159E1,4.648276E0,3.0779126E0,2.9522834E0,1.507549E0,1.0050327E0],"tree_param":{"num_deleted":"0","num_feature":"8","num_nodes":"37","size_leaf_vector":"1"}},{"base_weights":[-6.130806E-5,-3.2909012E-1,4.9667816E0,-4.472687E-1,3.6792634E0,-1.2862948E-1,6.026781E0,-1.4981754E-1,9.66481E-1,-8.984371E-2,2.021914E0,-1.069837E-1,8.232922E-1],"categories":[],"categories_nodes":[],"categories_segments":[],"categories_sizes":[],"default_left":[0,0,0,0,0,0,0,0,0,0,0,0,0],"id":2,"left_children":[1,3,5,7,9,-1,-1,-1,11,-1,-1,-1,-1],"loss_changes":[2.0436388E2,5.720237E1,6.425488E2,8.943258E0,4.4237587E1,0E0,0E0,0E0,1.138313E1,0E0,0E0,0E0,0E0],"parents":[2147483647,0,0,1,1,2,2,3,3,4,4,8,8],"right_children":[2,4,6,8,10,-1,-1,-1,12,-1,-1,-1,-1],"split_conditions":[5.56E1,2.16E2,1.77E2,2.07E2,4.23E1,-1.2862948E-1,6.026781E0,-1.4981754E-1,4.3E1,-8.984371E-2,2.021914E0,-1.069837E-1,8.232922E-1],"split_indices":[3,4,4,4,3,0,0,0,3,0,0,0,0],"split_type":[0,0,0,0,0,0,0,0,0,0,0,0,0],"sum_hessian":[1.2305157E2,1.16282196E2,6.769378E0,1.13814995E2,2.4671993E0,5.7053986E0,1.0639797E0,1.10391754E2,3.4232392E0,1.4648997E0,1.0022998E0,2.4209394E0,1.0022998E0],"tree_param":{"num_deleted":"0","num_feature":"8","num_nodes":"13","size_leaf_vector":"1"}},{"base_weights":[-5.9212856E-5,-2.087025E-1,3.9691617E0,-4.442374E-1,3.4921255E0,-4.9181095E-1,1.3466905E0,3.552531E-2,-1.4996879E-1,-8.9844674E-2,8.0046856E-1],"categories":[],"categories_nodes":[],"categories_segments":[],"categories_sizes":[],"default_left":[0,0,0,0,0,0,0,0,0,0,0],"id":3,"left_children":[1,3,-1,5,-1,7,9,-1,-1,-1,-1],"loss_changes":[3.5606992E2,3.595734E2,0E0,1.1352804E1,0E0,6.6584015E-1,8.444387E0,0E0,0E0,0E0,0E0],"parents":[2147483647,0,0,1,1,3,3,5,5,6,6],"right_children":[2,4,-1,6,-1,8,10,-1,-1,-1,-1],"split_conditions":[2.262E3,6.2E1,3.9691617E0,5.83E1,3.4921255E0,1.93E1,1.339E3,3.552531E-2,-1.4996879E-1,-8.9844674E-2,8.0046856E-1],"split_indices":[2,3,0,3,0,3,2,0,0,0,0],"split_type":[0,0,0,0,0,0,0,0,0,0,0],"sum_hessian":[1.2698834E2,1.259858E2,1.0025395E0,1.2447404E2,1.511766E0,1.2195973E2,2.5143056E0,1.416286E0,1.2054345E2,1.464026E0,1.0502795E0],"tree_param":{"num_deleted":"0","num_feature":"8","num_nodes":"11","size_leaf_vector":"1"}},{"base_weights":[-2.724782E-4,-1.6183421E-1,8.2756686E-1,-3.0819473E-1,1.9507894E-1,5.1274365E-1,-9.9362366E-2,-4.0311027E-1,1.5419762E-1,-1.1920164E-1,8.5184675E-1,7.3823735E-2,-1.3978657E-1,2.2247778E-1,-9.669117E-2,4.342022E-2,3.4221333E-1],"categories":[],"categories_nodes":[],"categories_segments":[],"categories_sizes":[],"default_left":[0,0,0,0,0,0,0,0,0,0,0,0,0,0,0,0,0],"id":4,"left_children":[1,3,5,7,9,-1,-1,11,13,-1,15,-1,-1,-1,-1,-1,-1],"loss_changes":[4.00813E0,1.3698862E0,5.5651407E0,8.595624E-1,3.4137821E0,0E0,0E0,7.4096775E-1,1.3075684E0,0E0,6.655247E-1,0E0,0E0,0E0,0E0,0E0,0E0],"parents":[2147483647,0,0,1,1,2,2,3,3,4,4,7,7,8,8,10,10],"right_children":[2,4,6,8,10,-1,-1,12,14,-1,16,-1,-1,-1,-1,-1,-1],"split_conditions":[3.117E2,4.57E1,3.03E2,1.81E2,1.399E3,5.1274365E-1,-9.9362366E-2,1.3E1,1.94E2,-1.1920164E-1,9.1E1,7.3823735E-2,-1.3978657E-1,2.2247778E-1,-9.669117E-2,4.342022E-2,3.4221333E-1],"split_indices":[1,3,0,4,2,0,0,4,4,0,4,0,0,0,0,0,0],"split_type":[0,0,0,0,0,0,0,0,0,0,0,0,0,0,0,0,0],"sum_hessian":[2.7966608E1,2.4073011E1,3.893597E0,1.7168974E1,6.9040375E0,1.9415416E0,1.9520553E0,1.4351286E1,2.8176885E0,3.8375235E0,3.066514E0,1.0093212E0,1.3341965E1,1.0128258E0,1.8048626E0,1.3247341E0,1.74178E0],"tree_param":{"num_deleted":"0","num_feature":"8","num_nodes":"17","size_leaf_vector":"1"}},{"base_weights":[-1.1306956E-4,-4.631516E-1,5.3551636E0,-1.48242E-1,1.60979E-1,1.8691167E0,2.2125177E-1],"categories":[],"categories_nodes":[],"categories_segments":[],"categories_sizes":[],"default_left":[0,0,0,0,0,0,0],"id":5,"left_children":[1,3,5,-1,-1,-1,-1],"loss_changes":[1.7289932E2,2.2533827E0,1.7831253E1,0E0,0E0,0E0,0E0],"parents":[2147483647,0,0,1,1,2,2],"right_children":[2,4,6,-1,-1,-1,-1],"split_conditions":[2.03E2,1.98E2,4.68E1,-1.48242E-1,1.60979E-1,1.8691167E0,2.2125177E-1],"split_indices":[4,4,3,0,0,0,0],"split_type":[0,0,0,0,0,0,0],"sum_hessian":[6.7725685E1,6.3176697E1,4.5489936E0,6.1767864E1,1.4088302E0,3.5305622E0,1.0184314E0],"tree_param":{"num_deleted":"0","num_feature":"8","num_nodes":"7","size_leaf_vector":"1"}},{"base_weights":[-7.5425315E-1,-1.2500592E0,-5.129772E-1,-8.5138835E-2,-1.7613279E0,9.543459E-2,-5.254979E-1,-1.3813455E-1,4.1060537E-1,-2.3194592E0,5.0857604E-1,-2.292011E-2,6.604126E-2,-1.121517E0,-1.5001005E-1,8.984278E-1,-1.944186E-1,-3.0440135E0,-1.4521874E0,7.0002455E-1,-8.810609E-2,-4.772826E-1,4.386933E-2,1.1317709E-1,4.110894E-1,9.3607016E-2,-2.9591915E-1,-9.665035E-2,-3.3467338E0,-1.6191529E0,-1.5848042E-1,1.2789351E-1,3.507692E-1,-3.0967253E-1,-1.1182015E0,-7.753919E-2,-5.1329887E-1],"categories":[],"categories_nodes":[],"categories_segments":[],"categories_sizes":[],"default_left":[0,0,0,0,0,0,0,0,0,0,0,0,0,0,0,0,0,0,0,0,0,0,0,0,0,0,0,0,0,0,0,0,0,0,0,0,0],"id":6,"left_children":[1,3,5,7,9,11,13,-1,15,17,19,-1,-1,21,-1,23,25,27,29,31,-1,-1,-1,-1,-1,-1,-1,-1,33,35,-1,-1,-1,-1,-1,-1,-1],"loss_changes":[2.04627E1,3.382946E1,9.6705437E-1,3.6223254E0,5.134807E1,8.696149E-2,1.2314987E0,0E0,2.6772854E0,1.5665192E1,1.5319071E0,0E0,0E0,2.6333408E0,0E0,6.812477E-1,2.155633E0,1.2519211E1,1.684021E0,4.3485308E-1,0E0,0E0,0E0,0E0,0E0,0E0,0E0,0E0,9.140869E0,1.2395706E0,0E0,0E0,0E0,0E0,0E0,0E0,0E0],"parents":[2147483647,0,0,1,1,2,2,3,3,4,4,5,5,6,6,8,8,9,9,10,10,13,13,15,15,16,16,17,17,18,18,19,19,28,28,29,29],"right_children":[2,4,6,8,10,12,14,-1,16,18,20,-1,-1,22,-1,24,26,28,30,32,-1,-1,-1,-1,-1,-1,-1,-1,34,36,-1,-1,-1,-1,-1,-1,-1],"split_conditions":[1.374E3,3.106E2,1.377E3,3.008E2,3.027E2,3.02E2,1.38E3,-1.3813455E-1,3.103E2,5.56E1,3.123E2,-2.292011E-2,6.604126E-2,3.023E2,-1.5001005E-1,5.89E1,1.54E2,3.016E2,1.73E2,3.035E2,-8.810609E-2,-4.772826E-1,4.386933E-2,1.1317709E-1,4.110894E-1,9.3607016E-2,-2.9591915E-1,-9.665035E-2,3.108E2,3.016E2,-1.5848042E-1,1.2789351E-1,3.507692E-1,-3.0967253E-1,-1.1182015E0,-7.753919E-2,-5.1329887E-1],"split_indices":[2,1,2,0,0,0,2,0,1,3,1,0,0,0,0,3,4,0,4,0,0,0,0,0,0,0,0,0,1,0,0,0,0,0,0,0,0],"split_type":[0,0,0,0,0,0,0,0,0,0,0,0,0,0,0,0,0,0,0,0,0,0,0,0,0,0,0,0,0,0,0,0,0,0,0,0,0],"sum_hessian":[1.75416E2,5.605194E1,1.1936406E2,1.745269E1,3.859925E1,2.2733738E0,1.1709068E2,9.973396E0,7.4792933E0,3.0963913E1,7.6353383E0,1.1189091E0,1.1544646E0,3.034018E0,1.1405667E2,3.8722258E0,3.6070676E0,1.5502563E1,1.54613495E1,6.2671995E0,1.3681388E0,2.028109E0,1.0059091E0,2.6950698E0,1.1771559E0,2.5697956E0,1.037272E0,1.7582121E0,1.3744351E1,1.24576E1,3.0037494E0,5.163586E0,1.1036133E0,2.4652212E0,1.1279131E1,1.0288619E0,1.1428739E1],"tree_param":{"num_deleted":"0","num_feature":"8","num_nodes":"37","size_leaf_vector":"1"}},{"base_weights":[4.9919173E-1,1.0866721E0,3.5843003E-1,5.1384217E-1,1.6589866E0,4.545546E-1,-1.8626387E-1,6.001569E-1,-7.873111E-1,2.2295208E0,5.3082496E-2,4.8252586E-1,-8.7010854E-1,-8.592836E-2,-1.0443516E0,7.452866E-1,-2.823795E-1,-2.4048794E-2,-3.6482581E-1,8.260677E-1,3.0711322E0,-4.9848804E-1,6.090315E-1,9.6890527E-1,4.5815125E-1,-1.8118413E-1,-1.4172144E0,8.926632E-4,-4.2855802E-1,-4.6278694E-1,2.3222823E-1,8.816648E-1,-1.3323309E-1,1.0602277E-1,-1.9068985E-1,9.0702325E-1,-3.9847693E-3,3.6644626E0,1.6944286E0,-2.5756722E-2,-1.816943E-1,-1.0972566E-1,9.029038E-1,1.2902361E0,-2.4956338E-1,4.6704832E-1,6.541905E-2,-1.2097878E-1,6.104776E-2,-7.790813E-2,-5.4653776E-1,-1.5497336E-1,2.9178926E-1,-5.231092E-1,-7.204306E-2,1.6131806E-1,3.4192914E-1,1.3196202E-1,3.4370163E-1,5.064317E-1,1.2543045E0,6.74995E-1,3.2438222E-2,3.013634E-1,6.1931945E-2,2.1198158E-1,6.9328E-1,-1.514386E-1,7.82469E-2,1.4317748E-1,6.950159E-2,-7.329013E-2,3.4310064E-1,-1.937673E-1,5.839705E-2,1.337153E-1,-5.6217577E-2,8.215298E-2,-3.8348484E-1],"categories":[],"categories_nodes":[],"categories_segments":[],"categories_sizes":[],"default_left":[0,0,0,0,0,0,0,0,0,0,0,0,0,0,0,0,0,0,0,0,0,0,0,0,0,0,0,0,0,0,0,0,0,0,0,0,0,0,0,0,0,0,0,0,0,0,0,0,0,0,0,0,0,0,0,0,0,0,0,0,0,0,0,0,0,0,0,0,0,0,0,0,0,0,0,0,0,0,0],"id":7,"left_children":[1,3,5,7,9,11,13,15,17,19,21,23,25,27,29,31,33,-1,-1,35,37,39,41,43,45,47,49,51,53,-1,-1,55,-1,-1,-1,57,-1,59,61,-1,-1,-1,63,65,67,69,71,-1,-1,-1,-1,73,75,-1,77,-1,-1,-1,-1,-1,-1,-1,-1,-1,-1,-1,-1,-1,-1,-1,-1,-1,-1,-1,-1,-1,-1,-1,-1],"loss_changes":[4.180716E1,3.1320908E1,2.1715641E1,6.1435995E0,4.4448822E1,1.3442032E1,5.3068295E0,6.348364E0,9.861474E-1,3.982744E1,4.527794E0,3.6441422E0,2.6169887E0,1.7021786E0,7.0584927E0,7.1116257E0,1.9074891E0,0E0,0E0,1.0186167E0,1.1804901E1,2.7808094E-1,2.4244564E0,6.413885E0,1.1234512E0,4.6831733E-1,1.4483757E0,2.1599371E0,5.2980924E0,0E0,0E0,2.7161846E0,0E0,0E0,0E0,1.0038519E0,0E0,7.7973022E0,7.249405E0,0E0,0E0,0E0,2.1066666E-1,5.798134E0,6.6378415E-1,6.651459E-1,3.1110446E0,0E0,0E0,0E0,0E0,5.4502754E0,1.3093147E0,0E0,4.5822425E0,0E0,0E0,0E0,0E0,0E0,0E0,0E0,0E0,0E0,0E0,0E0,0E0,0E0,0E0,0E0,0E0,0E0,0E0,0E0,0E0,0E0,0E0,0E0,0E0],"parents":[2147483647,0,0,1,1,2,2,3,3,4,4,5,5,6,6,7,7,8,8,9,9,10,10,11,11,12,12,13,13,14,14,15,15,16,16,19,19,20,20,21,21,22,22,23,23,24,24,25,25,26,26,27,27,28,28,31,31,35,35,37,37,38,38,42,42,43,43,44,44,45,45,46,46,51,51,52,52,54,54],"right_children":[2,4,6,8,10,12,14,16,18,20,22,24,26,28,30,32,34,-1,-1,36,38,40,42,44,46,48,50,52,54,-1,-1,56,-1,-1,-1,58,-1,60,62,-1,-1,-1,64,66,68,70,72,-1,-1,-1,-1,74,76,-1,78,-1,-1,-1,-1,-1,-1,-1,-1,-1,-1,-1,-1,-1,-1,-1,-1,-1,-1,-1,-1,-1,-1,-1,-1],"split_conditions":[1.371E3,3.105E2,2.05E2,2.06E2,3.027E2,5.89E1,5.14E1,6.58E1,5.22E1,3.016E2,3.123E2,1.384E3,1.399E3,2.25E2,1E0,3.017E2,5.1E1,-2.4048794E-2,-3.6482581E-1,3.014E2,3.024E2,3.03E2,9.5E1,3.024E2,2.478E3,1E0,5.9E1,1.568E3,3.07E1,-4.6278694E-1,2.3222823E-1,5.63E1,-1.3323309E-1,1.0602277E-1,-1.9068985E-1,5.58E1,-3.9847693E-3,3.108E2,5.96E1,-2.5756722E-2,-1.816943E-1,-1.0972566E-1,1.341E3,3.016E2,3.123E2,1.98E2,1E0,-1.2097878E-1,6.104776E-2,-7.790813E-2,-5.4653776E-1,4.2E1,2.17E2,-5.231092E-1,4.49E1,1.6131806E-1,3.4192914E-1,1.3196202E-1,3.4370163E-1,5.064317E-1,1.2543045E0,6.74995E-1,3.2438222E-2,3.013634E-1,6.1931945E-2,2.1198158E-1,6.9328E-1,-1.514386E-1,7.82469E-2,1.4317748E-1,6.950159E-2,-7.329013E-2,3.4310064E-1,-1.937673E-1,5.839705E-2,1.337153E-1,-5.6217577E-2,8.215298E-2,-3.8348484E-1],"split_indices":[2,1,4,4,0,3,3,3,3,0,1,2,2,4,7,0,4,0,0,0,0,0,4,0,2,6,4,2,3,0,0,3,0,0,0,3,0,1,3,0,0,0,2,0,1,4,5,0,0,0,0,3,4,0,3,0,0,0,0,0,0,0,0,0,0,0,0,0,0,0,0,0,0,0,0,0,0,0,0],"split_type":[0,0,0,0,0,0,0,0,0,0,0,0,0,0,0,0,0,0,0,0,0,0,0,0,0,0,0,0,0,0,0,0,0,0,0,0,0,0,0,0,0,0,0,0,0,0,0,0,0,0,0,0,0,0,0,0,0,0,0,0,0,0,0,0,0,0,0,0,0,0,0,0,0,0,0,0,0,0,0],"sum_hessian":[5.0927017E2,9.713779E1,4.121324E2,4.949553E1,4.764226E1,3.5045206E2,6.168034E1,4.692163E1,2.5738962E0,3.486673E1,1.2775532E1,3.438276E2,6.624447E0,5.6208107E1,5.4722304E0,4.042879E1,6.492841E0,1.4196025E0,1.1542938E0,1.3813373E1,2.1053356E1,6.464902E0,6.3106303E0,1.4559128E1,3.2926846E2,3.5214055E0,3.1030416E0,4.5640404E1,1.0567705E1,4.4143395E0,1.0578909E0,3.650213E1,3.9266646E0,2.3188715E0,4.173969E0,1.2524734E1,1.2886393E0,1.3551275E1,7.5020804E0,1.7041271E0,4.760775E0,1.4051403E0,4.90549E0,1.1474269E1,3.084859E0,3.2178934E2,7.4791265E0,2.201904E0,1.3195014E0,1.2289199E0,1.8741217E0,3.0021673E1,1.561873E1,1.4239565E0,9.143749E0,1.6970695E1,1.9531431E1,5.1962895E0,7.3284435E0,3.6923127E0,9.858962E0,5.246328E0,2.2557528E0,3.8947473E0,1.0107427E0,8.376751E0,3.0975182E0,2.063771E0,1.0210879E0,3.0742645E2,1.4362913E1,6.411032E0,1.0680941E0,1.2135208E1,1.7886465E1,1.1874192E1,3.744537E0,7.7068157E0,1.436933E0],"tree_param":{"num_deleted":"0","num_feature":"8","num_nodes":"79","size_leaf_vector":"1"}},{"base_weights":[-4.4682792E-1,-6.344125E-1,4.0105635E-1,-1.491301E-1,-1.2717979E0,-4.1522354E-1,1.4083148E0,-1.6751043E0,3.740905E-2,-1.4556782E-1,6.738389E-2,2.078953E0,-4.8192185E-1,-2.4968429E0,-8.520459E-1,-1.0380419E-1,1.323388E-1,2.3407326E0,9.9303834E-2,1.1541381E-2,-2.114691E-1,-1.1487546E0,-1.3953881E0,-1.239979E0,1.1854722E-1,2.5886393E-1,7.818808E-1,-8.71072E-2,-4.1576293E-1,-1.0408233E-1,-4.8816106E-1],"categories":[],"categories_nodes":[],"categories_segments":[],"categories_sizes":[],"default_left":[0,0,0,0,0,0,0,0,0,0,0,0,0,0,0,0,0,0,0,0,0,0,0,0,0,0,0,0,0,0,0],"id":8,"left_children":[1,3,5,-1,7,9,11,13,15,-1,-1,17,19,21,23,-1,-1,25,-1,-1,-1,27,-1,29,-1,-1,-1,-1,-1,-1,-1],"loss_changes":[1.9784683E1,8.201733E0,1.9378534E1,0E0,9.170191E0,7.090924E-1,1.4261213E1,6.805931E0,9.328579E-1,0E0,0E0,2.843998E0,4.3915403E-1,1.2348835E1,4.417213E0,0E0,0E0,3.8576508E-1,0E0,0E0,0E0,6.305728E-1,0E0,1.6599808E0,0E0,0E0,0E0,0E0,0E0,0E0,0E0],"parents":[2147483647,0,0,1,1,2,2,4,4,5,5,6,6,7,7,8,8,11,11,12,12,13,13,14,14,17,17,21,21,23,23],"right_children":[2,4,6,-1,8,10,12,14,16,-1,-1,18,20,22,24,-1,-1,26,-1,-1,-1,28,-1,30,-1,-1,-1,-1,-1,-1,-1],"split_conditions":[2.07E2,5.56E1,4.87E1,-1.491301E-1,6.2E1,2.39E2,1E0,1E0,1.74E2,-1.4556782E-1,6.738389E-2,5.56E1,1.363E3,1.89E2,1.95E2,-1.0380419E-1,1.323388E-1,5.01E1,9.9303834E-2,1.1541381E-2,-2.114691E-1,1.77E2,-1.3953881E0,1.76E2,1.1854722E-1,2.5886393E-1,7.818808E-1,-8.71072E-2,-4.1576293E-1,-1.0408233E-1,-4.8816106E-1],"split_indices":[4,3,3,0,3,4,7,6,4,0,0,3,2,4,4,0,0,3,0,0,0,4,0,4,0,0,0,0,0,0,0],"split_type":[0,0,0,0,0,0,0,0,0,0,0,0,0,0,0,0,0,0,0,0,0,0,0,0,0,0,0,0,0,0,0],"sum_hessian":[1.2179313E2,9.9935356E1,2.1857769E1,8.368662E1,1.6248734E1,1.2398127E1,9.459643E0,1.2208406E1,4.040328E0,1.1393265E1,1.0048614E0,6.908674E0,2.5509694E0,5.091478E0,7.1169286E0,2.145567E0,1.8947608E0,5.7138095E0,1.1948644E0,1.0133694E0,1.5376E0,4.074914E0,1.0165639E0,5.432868E0,1.6840605E0,1.5175275E0,4.196282E0,1.3634908E0,2.711423E0,2.2166586E0,3.2162097E0],"tree_param":{"num_deleted":"0","num_feature":"8","num_nodes":"31","size_leaf_vector":"1"}},{"base_weights":[-3.888947E-1,-4.675154E-1,4.638331E-1,-9.0287197E-1,-3.640478E-1,2.1842683E-2,3.122326E-1,-1.317383E-1,-3.0968902E-1,-4.539113E-1,9.360106E-1,1.710125E-1,-2.0984246E-1,2.4189206E-2,-4.999362E-1,1.456846E-1,2.0476382E0,-1.8520114E-1,1.708413E-1,2.5416398E-1,-2.9053596E-1,5.4566383E-2,-1.5256712E-1,1.4213245E-1,-1.7351463E-1,1.0677492E-1,8.242311E-1,-6.15661E-3,1.5079612E-1],"categories":[],"categories_nodes":[],"categories_segments":[],"categories_sizes":[],"default_left":[0,0,0,0,0,0,0,0,0,0,0,0,0,0,0,0,0,0,0,0,0,0,0,0,0,0,0,0,0],"id":9,"left_children":[1,3,5,7,9,11,-1,-1,-1,13,15,-1,17,19,21,23,25,-1,-1,27,-1,-1,-1,-1,-1,-1,-1,-1,-1],"loss_changes":[1.1039236E1,6.351433E0,3.5801983E0,1.2153187E0,1.4619047E1,1.2654456E0,0E0,0E0,0E0,2.5275383E0,6.8897705E0,0E0,2.597514E0,2.7554634E0,7.056942E-1,1.6657791E0,2.9563675E0,0E0,0E0,6.7354065E-1,0E0,0E0,0E0,0E0,0E0,0E0,0E0,0E0,0E0],"parents":[2147483647,0,0,1,1,2,2,3,3,4,4,5,5,9,9,10,10,12,12,13,13,14,14,15,15,16,16,19,19],"right_children":[2,4,6,8,10,12,-1,-1,-1,14,16,-1,18,20,22,24,26,-1,-1,28,-1,-1,-1,-1,-1,-1,-1,-1,-1],"split_conditions":[6.58E1,1.354E3,1.289E3,6.2E1,5.83E1,3.09E2,3.122326E-1,-1.317383E-1,-3.0968902E-1,1.37E1,1.399E3,1.710125E-1,3.121E2,1E0,3.063E2,1.43E2,3.084E2,-1.8520114E-1,1.708413E-1,3.105E2,-2.9053596E-1,5.4566383E-2,-1.5256712E-1,1.4213245E-1,-1.7351463E-1,1.0677492E-1,8.242311E-1,-6.15661E-3,1.5079612E-1],"split_indices":[3,2,2,3,3,1,0,0,0,3,2,0,1,5,1,4,1,0,0,1,0,0,0,0,0,0,0,0,0],"split_type":[0,0,0,0,0,0,0,0,0,0,0,0,0,0,0,0,0,0,0,0,0,0,0,0,0,0,0,0,0],"sum_hessian":[1.6042682E2,1.4729784E2,1.3128982E1,2.6801235E1,1.20496605E2,8.021579E0,5.1074033E0,6.806316E0,1.999492E1,1.13314835E2,7.1817713E0,1.9491667E0,6.072412E0,9.992149E0,1.03322685E2,4.8585663E0,2.323205E0,4.123909E0,1.948503E0,8.716637E0,1.275513E0,1.0391258E0,1.0228356E2,3.581422E0,1.2771441E0,1.1212493E0,1.2019557E0,4.575828E0,4.140808E0],"tree_param":{"num_deleted":"0","num_feature":"8","num_nodes":"29","size_leaf_vector":"1"}},{"base_weights":[4.6333946E-2,-1.0902408E-1,6.194861E-1,-2.668839E-1,2.1093926E-1,1.0758073E0,-9.416368E-2,-3.7683883E-1,1.4820048E-1,-1.14064306E-1,7.009991E-1,3.238585E-1,4.9539688E-1,7.226745E-2,-1.3666275E-1,2.0681685E-1,-9.566274E-2,1.1978008E0,-8.609161E-2,-7.631204E-2,2.2456041E-1,5.2341804E-2,5.1954204E-1],"categories":[],"categories_nodes":[],"categories_segments":[],"categories_sizes":[],"default_left":[0,0,0,0,0,0,0,0,0,0,0,0,0,0,0,0,0,0,0,0,0,0,0],"id":10,"left_children":[1,3,5,7,9,11,-1,13,15,-1,17,19,-1,-1,-1,-1,-1,21,-1,-1,-1,-1,-1],"loss_changes":[2.426863E0,1.152154E0,2.8080142E0,7.39077E-1,2.5048597E0,1.2487841E0,0E0,6.98838E-1,1.1937119E0,0E0,2.589774E0,9.3465185E-1,0E0,0E0,0E0,0E0,0E0,1.4673958E0,0E0,0E0,0E0,0E0,0E0],"parents":[2147483647,0,0,1,1,2,2,3,3,4,4,5,5,7,7,8,8,10,10,11,11,17,17],"right_children":[2,4,6,8,10,12,-1,14,16,-1,18,20,-1,-1,-1,-1,-1,22,-1,-1,-1,-1,-1],"split_conditions":[3.117E2,4.57E1,3.03E2,1.81E2,1.399E3,3.025E2,-9.416368E-2,1.4E1,1.94E2,-1.14064306E-1,1.45E2,4.14E1,4.9539688E-1,7.226745E-2,-1.3666275E-1,2.0681685E-1,-9.566274E-2,8.9E1,-8.609161E-2,-7.631204E-2,2.2456041E-1,5.2341804E-2,5.1954204E-1],"split_indices":[1,3,0,4,2,0,0,4,4,0,4,3,0,0,0,0,0,4,0,0,0,0,0],"split_type":[0,0,0,0,0,0,0,0,0,0,0,0,0,0,0,0,0,0,0,0,0,0,0],"sum_hessian":[2.5496222E1,2.0696133E1,4.8000903E0,1.3969777E1,6.7263546E0,3.1214197E0,1.6786706E0,1.1117038E1,2.8527398E0,3.1503139E0,3.576041E0,2.0307884E0,1.0906312E0,1.0234476E0,1.009359E1,1.1010336E0,1.7517062E0,2.2381845E0,1.3378564E0,1.0297356E0,1.0010529E0,1.2223983E0,1.0157863E0],"tree_param":{"num_deleted":"0","num_feature":"8","num_nodes":"23","size_leaf_vector":"1"}},{"base_weights":[-6.695353E-2,-1.4738657E-1,5.918043E-1,7.87249E-1,1.1856713E-1,4.4342783E-1,1.1651652E0,5.813422E-1,-1.2631832E-1,1.311792E0,-2.1130253E-1,-8.0394164E-2,1.3691497E0,1.0534059E0,-9.772287E-2,1.7304567E0,2.5542367E-2,-1.3266675E-1,1.9883955E-1,1.6165836E0,2.7167844E-2,-9.5609345E-2,6.123313E-1,7.289203E-1,3.9461717E-2,6.560839E-1,2.8493756E-1],"categories":[],"categories_nodes":[],"categories_segments":[],"categories_sizes":[],"default_left":[0,0,0,0,0,0,0,0,0,0,0,0,0,0,0,0,0,0,0,0,0,0,0,0,0,0,0],"id":11,"left_children":[1,-1,3,5,7,9,11,13,-1,15,17,-1,19,21,-1,23,-1,-1,-1,25,-1,-1,-1,-1,-1,-1,-1],"loss_changes":[2.2179302E1,0E0,2.7860641E0,2.3230696E0,2.811105E0,7.7012854E0,3.2309208E0,2.8919115E0,0E0,2.806633E0,1.9696674E0,0E0,2.6186104E0,6.2761397E0,0E0,4.417283E0,0E0,0E0,0E0,6.85236E-1,0E0,0E0,0E0,0E0,0E0,0E0,0E0],"parents":[2147483647,0,0,2,2,3,3,4,4,5,5,6,6,7,7,9,9,10,10,12,12,13,13,15,15,19,19],"right_children":[2,-1,4,6,8,10,12,14,-1,16,18,-1,20,22,-1,24,-1,-1,-1,26,-1,-1,-1,-1,-1,-1,-1],"split_conditions":[1.98E2,-1.4738657E-1,4.2E1,2.14E2,1.443E3,1.555E3,2.974E2,4.81E1,-1.2631832E-1,2.1E2,1.863E3,-8.0394164E-2,3.024E2,4.42E1,-9.772287E-2,3.83E1,2.5542367E-2,-1.3266675E-1,1.9883955E-1,3.07E1,2.7167844E-2,-9.5609345E-2,6.123313E-1,7.289203E-1,3.9461717E-2,6.560839E-1,2.8493756E-1],"split_indices":[4,0,3,4,2,2,0,3,0,4,2,0,0,3,0,3,0,0,0,3,0,0,0,0,0,0,0],"split_type":[0,0,0,0,0,0,0,0,0,0,0,0,0,0,0,0,0,0,0,0,0,0,0,0,0,0,0],"sum_hessian":[7.730374E1,4.717224E1,3.01315E1,2.085496E1,9.276541E0,1.20580845E1,8.796876E0,4.952267E0,4.3242736E0,4.7519913E0,7.3060927E0,1.0569901E0,7.7398853E0,3.1510794E0,1.8011879E0,3.2366E0,1.5153913E0,6.1701465E0,1.135946E0,6.263432E0,1.4764534E0,1.6023871E0,1.5486922E0,1.8902836E0,1.3463165E0,2.147065E0,4.116367E0],"tree_param":{"num_deleted":"0","num_feature":"8","num_nodes":"27","size_leaf_vector":"1"}},{"base_weights":[-5.1395684E-1,-5.719612E-1,-1.2283993E-1,-4.3935224E-1,-8.285832E-1,2.0988798E-1,-1.3448E-1,-5.4696167E-1,2.5062805E-1,-9.7317976E-1,-1.4165948E-1,-2.2002234E-1,4.6863857E-1,-4.1845283E-1,-8.80177E-1,-1.8593371E-1,4.6512896E-1,-9.426041E-2,-2.9911608E-1,1.5612708E-1,-2.3854113E-1,6.692184E-1,-8.720133E-2,-4.751767E-1,2.8576255E-1,-1.1943656E0,-1.378633E-1,-1.4595E-1,7.1541145E-2,1.8798043E-1,-8.768103E-2,1.1106419E-1,2.9972765E-1,-1.5258965E-1,8.006325E-2,1.4870565E-1,-8.0281615E-2,-8.5410275E-2,-3.820464E-1],"categories":[],"categories_nodes":[],"categories_segments":[],"categories_sizes":[],"default_left":[0,0,0,0,0,0,0,0,0,0,0,0,0,0,0,0,0,0,0,0,0,0,0,0,0,0,0,0,0,0,0,0,0,0,0,0,0,0,0],"id":12,"left_children":[1,3,5,7,9,11,-1,13,15,17,-1,19,21,23,25,27,29,-1,-1,-1,-1,31,-1,33,35,37,-1,-1,-1,-1,-1,-1,-1,-1,-1,-1,-1,-1,-1],"loss_changes":[3.7592926E0,4.6291885E0,2.5925684E0,7.47785E0,2.0583687E0,1.4480414E0,0E0,3.3075733E0,1.3998084E0,2.187233E-1,0E0,2.638077E0,1.3927095E0,2.6866083E0,2.4888973E0,7.9656625E-1,1.3681843E0,0E0,0E0,0E0,0E0,2.7381086E-1,0E0,1.6121883E0,7.581543E-1,5.394497E-1,0E0,0E0,0E0,0E0,0E0,0E0,0E0,0E0,0E0,0E0,0E0,0E0,0E0],"parents":[2147483647,0,0,1,1,2,2,3,3,4,4,5,5,7,7,8,8,9,9,11,11,12,12,13,13,14,14,15,15,16,16,21,21,23,23,24,24,25,25],"right_children":[2,4,6,8,10,12,-1,14,16,18,-1,20,22,24,26,28,30,-1,-1,-1,-1,32,-1,34,36,38,-1,-1,-1,-1,-1,-1,-1,-1,-1,-1,-1,-1,-1],"split_conditions":[3.026E2,3.11E2,1.376E3,3.021E2,1.38E3,3.027E2,-1.3448E-1,3.105E2,8.4E1,3.015E2,-1.4165948E-1,3.111E2,3.123E2,3.017E2,1.38E3,1.358E3,1.38E3,-9.426041E-2,-2.9911608E-1,1.5612708E-1,-2.3854113E-1,1.362E3,-8.720133E-2,6.2E1,1.377E3,3.016E2,-1.378633E-1,-1.4595E-1,7.1541145E-2,1.8798043E-1,-8.768103E-2,1.1106419E-1,2.9972765E-1,-1.5258965E-1,8.006325E-2,1.4870565E-1,-8.0281615E-2,-8.5410275E-2,-3.820464E-1],"split_indices":[0,1,2,0,2,0,0,1,4,0,0,1,1,0,2,2,2,0,0,0,0,2,0,3,2,0,0,0,0,0,0,0,0,0,0,0,0,0,0],"split_type":[0,0,0,0,0,0,0,0,0,0,0,0,0,0,0,0,0,0,0,0,0,0,0,0,0,0,0,0,0,0,0,0,0,0,0,0,0,0,0],"sum_hessian":[1.6780318E2,1.4572859E2,2.2074585E1,9.786768E1,4.7860912E1,1.10904E1,1.0984184E1,8.484286E1,1.3024825E1,3.2815807E1,1.5045107E1,4.2232337E0,6.8671665E0,6.285703E1,2.1985828E1,4.335073E0,8.689753E0,1.6423925E0,3.1173414E1,1.8878148E0,2.3354187E0,5.5260496E0,1.341117E0,5.8472374E1,4.3846526E0,1.1532362E1,1.0453466E1,2.4521375E0,1.8829354E0,7.305056E0,1.3846961E0,4.0118837E0,1.514166E0,5.6250874E1,2.2215018E0,3.254341E0,1.1303118E0,1.2907629E0,1.0241599E1],"tree_param":{"num_deleted":"0","num_feature":"8","num_nodes":"39","size_leaf_vector":"1"}},{"base_weights":[3.8353541E-1,4.7853702E-1,-1.3235907E-1,6.601902E-1,4.2170346E-1,-6.591456E-2,-7.736236E-1,7.64827E-1,-5.3843595E-2,4.5331192E-1,-5.2771956E-1,1.726302E-2,-3.9629084E-1,1.0227385E-1,-3.314159E-1,7.0540005E-1,1.5746522E0,3.912112E-1,-4.736149E-1,4.6302778E-1,6.896501E-2,-1.1592839E-1,-9.4992936E-1,1.2819189E-1,-2.5340334E-1,-1.24586135E-1,-3.3015704E-1,5.370226E-1,8.1550443E-1,9.213357E-2,5.76515E-1,-1.3171822E-1,7.522344E-1,-1.9038504E-2,-1.7006238E-1,4.5150667E-1,7.64764E-1,-2.029331E-1,2.3090352E-1,-3.6040643E-1,1.5784773E-1,-5.2388277E-2,-3.5880783E-1,1.785283E-1,-4.409061E-1,-4.1553643E-1,1.2541434E-1,1.4369977E-1,-8.514075E-1,2.0863245E-1,-1.399504E-1,2.7286386E-1,1.24628276E-1,3.460387E-1,-1.1374191E-1,1.4009553E-1,4.2439353E-2,2.349026E-2,5.5027175E-1,5.832876E-2,-1.3490787E-1,1.1006662E-2,-1.6075797E-1,9.780114E-2,-2.3517476E-2,-2.5880313E-1,8.350269E-2,-7.896677E-3,-1.714491E-1,-3.6987048E-1,9.0048276E-2],"categories":[],"categories_nodes":[],"categories_segments":[],"categories_sizes":[],"default_left":[0,0,0,0,0,0,0,0,0,0,0,0,0,0,0,0,0,0,0,0,0,0,0,0,0,0,0,0,0,0,0,0,0,0,0,0,0,0,0,0,0,0,0,0,0,0,0,0,0,0,0,0,0,0,0,0,0,0,0,0,0,0,0,0,0,0,0,0,0,0,0],"id":13,"left_children":[1,3,5,7,9,11,13,15,17,19,21,23,25,-1,-1,27,29,31,33,35,37,39,41,43,45,47,-1,49,51,-1,-1,-1,53,-1,-1,55,57,59,-1,61,-1,-1,-1,63,65,67,-1,-1,69,-1,-1,-1,-1,-1,-1,-1,-1,-1,-1,-1,-1,-1,-1,-1,-1,-1,-1,-1,-1,-1,-1],"loss_changes":[2.2701584E1,3.7509308E0,3.0430136E0,6.858181E0,9.2435875E0,1.8449807E0,2.8580513E0,2.7221985E0,2.538489E0,1.0544281E0,1.6510129E0,1.6656792E0,2.4451282E0,0E0,0E0,9.71241E-1,1.4481707E0,2.3270533E0,2.2927487E-1,6.404877E-1,1.7466322E0,1.1734046E0,7.1889734E-1,1.2029855E0,1.9317058E0,5.1746464E0,0E0,5.567706E0,1.2787361E0,0E0,0E0,0E0,2.7121487E0,0E0,0E0,1.2564507E0,6.454905E0,7.547298E-1,0E0,3.7723744E-1,0E0,0E0,0E0,1.4187148E0,1.2950361E0,8.0498457E-1,0E0,0E0,2.6939209E0,0E0,0E0,0E0,0E0,0E0,0E0,0E0,0E0,0E0,0E0,0E0,0E0,0E0,0E0,0E0,0E0,0E0,0E0,0E0,0E0,0E0,0E0],"parents":[2147483647,0,0,1,1,2,2,3,3,4,4,5,5,6,6,7,7,8,8,9,9,10,10,11,11,12,12,15,15,16,16,17,17,18,18,19,19,20,20,21,21,22,22,23,23,24,24,25,25,27,27,28,28,32,32,35,35,36,36,37,37,39,39,43,43,44,44,45,45,48,48],"right_children":[2,4,6,8,10,12,14,16,18,20,22,24,26,-1,-1,28,30,32,34,36,38,40,42,44,46,48,-1,50,52,-1,-1,-1,54,-1,-1,56,58,60,-1,62,-1,-1,-1,64,66,68,-1,-1,70,-1,-1,-1,-1,-1,-1,-1,-1,-1,-1,-1,-1,-1,-1,-1,-1,-1,-1,-1,-1,-1,-1],"split_conditions":[2.05E2,1.356E3,5.28E1,6.58E1,5.89E1,2.25E2,1E0,1.91E2,1.281E3,2.478E3,1.399E3,3.017E2,4.49E1,1.0227385E-1,-3.314159E-1,3.107E2,5.4E1,3.09E2,4.1E1,5.56E1,1E0,1.43E2,5.9E1,3.118E2,2.19E2,1.573E3,-3.3015704E-1,3.018E2,3.026E2,9.213357E-2,5.76515E-1,-1.3171822E-1,3.02E2,-1.9038504E-2,-1.7006238E-1,1.98E2,1.77E2,3.102E2,2.3090352E-1,6.2E1,1.5784773E-1,-5.2388277E-2,-3.5880783E-1,2.16E2,3.008E2,3.49E1,1.2541434E-1,1.4369977E-1,2.36E2,2.0863245E-1,-1.399504E-1,2.7286386E-1,1.24628276E-1,3.460387E-1,-1.1374191E-1,1.4009553E-1,4.2439353E-2,2.349026E-2,5.5027175E-1,5.832876E-2,-1.3490787E-1,1.1006662E-2,-1.6075797E-1,9.780114E-2,-2.3517476E-2,-2.5880313E-1,8.350269E-2,-7.896677E-3,-1.714491E-1,-3.6987048E-1,9.0048276E-2],"split_indices":[4,2,3,3,3,4,6,4,2,2,2,0,3,0,0,1,3,1,4,3,5,4,4,1,4,2,0,0,0,0,0,0,0,0,0,4,4,1,0,3,0,0,0,4,0,3,0,0,4,0,0,0,0,0,0,0,0,0,0,0,0,0,0,0,0,0,0,0,0,0,0],"split_type":[0,0,0,0,0,0,0,0,0,0,0,0,0,0,0,0,0,0,0,0,0,0,0,0,0,0,0,0,0,0,0,0,0,0,0,0,0,0,0,0,0,0,0,0,0,0,0,0,0,0,0,0,0,0,0,0,0,0,0,0,0,0,0,0,0,0,0,0,0,0,0],"sum_hessian":[4.6090317E2,3.892884E2,7.161476E1,9.0241035E1,2.9904736E2,6.5890335E1,5.7244277E0,7.864501E1,1.1596028E1,2.8991788E2,9.129493E0,5.339502E1,1.2495313E1,1.3042862E0,4.420141E0,7.501153E1,3.6334817E0,5.661531E0,5.934497E0,2.825701E2,7.34777E0,5.2670193E0,3.862473E0,3.8246574E1,1.5148445E1,9.865824E0,2.629489E0,3.198136E1,4.3030167E1,1.1861905E0,2.4472911E0,1.6502261E0,4.011305E0,1.4107118E0,4.523785E0,2.7458218E2,7.98792E0,5.805464E0,1.5423062E0,4.1323156E0,1.1347039E0,1.3425379E0,2.5199351E0,3.576911E1,2.477463E0,1.250906E1,2.6393847E0,5.576125E0,4.289699E0,2.7886177E1,4.0951834E0,3.3809505E1,9.220661E0,2.9467523E0,1.0645527E0,2.6104373E2,1.3538442E1,5.518791E0,2.4691284E0,2.305286E0,3.5001779E0,1.5086814E0,2.623634E0,2.255395E1,1.3215163E1,1.4359815E0,1.0414816E0,3.912879E0,8.596181E0,3.1691787E0,1.1205202E0],"tree_param":{"num_deleted":"0","num_feature":"8","num_nodes":"71","size_leaf_vector":"1"}},{"base_weights":[-4.0594903E-1,-5.995527E-1,2.548716E-1,-1.4837113E-1,-9.185563E-1,-4.0031803E-1,8.0693907E-1,-1.1723816E0,-7.366E-2,-1.4300394E-1,5.8202833E-2,1.0888333E0,-4.693579E-1,-1.6096675E0,-5.936428E-1,-1.1985811E-1,1.2386752E-1,1.1704869E0,4.4044953E-2,3.4725298E-3,-2.1438918E-1,-2.55549E-1,-6.8612015E-1,-8.883365E-1,1.10313565E-1,9.658615E-2,3.9124927E-1,-9.284434E-2,-3.050143E-1],"categories":[],"categories_nodes":[],"categories_segments":[],"categories_sizes":[],"default_left":[0,0,0,0,0,0,0,0,0,0,0,0,0,0,0,0,0,0,0,0,0,0,0,0,0,0,0,0,0],"id":14,"left_children":[1,3,5,-1,7,9,11,13,15,-1,-1,17,19,21,23,-1,-1,25,-1,-1,-1,-1,-1,27,-1,-1,-1,-1,-1],"loss_changes":[1.3838896E1,2.3264866E0,9.344456E0,0E0,4.0726643E0,6.404338E-1,5.500265E0,2.8015957E0,1.0444877E0,0E0,0E0,7.2501564E-1,3.8663256E-1,2.0930805E0,2.5856912E0,0E0,0E0,7.8092575E-1,0E0,0E0,0E0,0E0,0E0,1.6063166E-1,0E0,0E0,0E0,0E0,0E0],"parents":[2147483647,0,0,1,1,2,2,4,4,5,5,6,6,7,7,8,8,11,11,12,12,13,13,14,14,17,17,23,23],"right_children":[2,4,6,-1,8,10,12,14,16,-1,-1,18,20,22,24,-1,-1,26,-1,-1,-1,-1,-1,28,-1,-1,-1,-1,-1],"split_conditions":[2.07E2,5.56E1,4.87E1,-1.4837113E-1,6.11E1,3.123E2,1E0,1E0,1.79E2,-1.4300394E-1,5.8202833E-2,3.123E2,1.371E3,1.89E2,1.95E2,-1.1985811E-1,1.2386752E-1,3.085E2,4.4044953E-2,3.4725298E-3,-2.1438918E-1,-2.55549E-1,-6.8612015E-1,1.76E2,1.10313565E-1,9.658615E-2,3.9124927E-1,-9.284434E-2,-3.050143E-1],"split_indices":[4,3,3,0,3,1,7,6,4,0,0,1,2,4,4,0,0,1,0,0,0,0,0,4,0,0,0,0,0],"split_type":[0,0,0,0,0,0,0,0,0,0,0,0,0,0,0,0,0,0,0,0,0,0,0,0,0,0,0,0,0],"sum_hessian":[1.0597496E2,8.2033844E1,2.3941114E1,6.364049E1,1.8393356E1,1.1073747E1,1.2867368E1,1.3846085E1,4.5472717E0,9.988352E0,1.0853953E0,1.0659825E1,2.2075422E0,6.8722134E0,6.973871E0,2.8304462E0,1.7168254E0,9.586351E0,1.0734743E0,1.0673935E0,1.1401488E0,4.309019E0,2.5631943E0,5.3957963E0,1.5780747E0,1.7685692E0,7.817782E0,1.5985674E0,3.797229E0],"tree_param":{"num_deleted":"0","num_feature":"8","num_nodes":"29","size_leaf_vector":"1"}},{"base_weights":[-3.397852E-1,-4.1782996E-1,3.879993E-1,-7.1842504E-1,-3.2544285E-1,1.9018404E-2,2.5885487E-1,-1.3318193E-1,-2.3852883E-1,-4.3071327E-1,8.682462E-1,-1.9504027E-1,1.5858477E-1,1.8147197E-2,-4.8562452E-1,2.8148568E-1,1.3234204E0,1.4519382E-1,-1.5766548E-1,2.1918538E-1,-2.0046659E-1,5.537269E-2,-1.4905265E-1,1.3711843E-1,-3.7363738E-2,7.59536E-2,5.027841E-1,-7.4357E-3,1.3997407E-1],"categories":[],"categories_nodes":[],"categories_segments":[],"categories_sizes":[],"default_left":[0,0,0,0,0,0,0,0,0,0,0,0,0,0,0,0,0,0,0,0,0,0,0,0,0,0,0,0,0],"id":15,"left_children":[1,3,5,7,9,11,-1,-1,-1,13,15,17,-1,19,21,23,25,-1,-1,27,-1,-1,-1,-1,-1,-1,-1,-1,-1],"loss_changes":[7.963112E0,3.224306E0,2.4050221E0,2.4567413E-1,1.2572538E1,1.0629897E0,0E0,0E0,0E0,2.2240582E0,1.8172026E0,1.8089635E0,0E0,1.6312813E0,6.9402504E-1,4.0280995E-1,1.2157478E0,0E0,0E0,5.593566E-1,0E0,0E0,0E0,0E0,0E0,0E0,0E0,0E0,0E0],"parents":[2147483647,0,0,1,1,2,2,3,3,4,4,5,5,9,9,10,10,11,11,13,13,14,14,15,15,16,16,19,19],"right_children":[2,4,6,8,10,12,-1,-1,-1,14,16,18,-1,20,22,24,26,-1,-1,28,-1,-1,-1,-1,-1,-1,-1,-1,-1],"split_conditions":[6.58E1,1.367E3,1.289E3,6.2E1,5.83E1,3.121E2,2.5885487E-1,-1.3318193E-1,-2.3852883E-1,1.37E1,1.399E3,3.09E2,1.5858477E-1,1E0,3.064E2,1E0,5.9E1,1.4519382E-1,-1.5766548E-1,3.105E2,-2.0046659E-1,5.537269E-2,-1.4905265E-1,1.3711843E-1,-3.7363738E-2,7.59536E-2,5.027841E-1,-7.4357E-3,1.3997407E-1],"split_indices":[3,2,2,3,3,1,0,0,0,3,2,1,0,5,1,6,4,0,0,1,0,0,0,0,0,0,0,0,0],"split_type":[0,0,0,0,0,0,0,0,0,0,0,0,0,0,0,0,0,0,0,0,0,0,0,0,0,0,0,0,0],"sum_hessian":[1.3634204E2,1.2352193E2,1.2820121E1,2.7446022E1,9.6075905E1,7.799553E0,5.020568E0,7.4750934E0,1.9970928E1,8.887708E1,7.19882E0,5.92711E0,1.8724427E0,9.760602E0,7.911648E1,3.8518505E0,3.3469696E0,1.788463E0,4.138647E0,8.07584E0,1.6847619E0,1.0480222E0,7.806846E1,2.6013134E0,1.2505373E0,1.2550186E0,2.0919511E0,4.519098E0,3.5567424E0],"tree_param":{"num_deleted":"0","num_feature":"8","num_nodes":"29","size_leaf_vector":"1"}},{"base_weights":[1.0735171E-1,-1.5963776E-1,4.006695E-1,-1.3141996E-1,2.2486979E-1,7.41527E-1,-1.14550106E-1,3.6670956E-1,-2.1058966E-1,3.74716E-1,5.1576E-1,-1.1165882E-1,4.7248825E-2,-2.1073842E-2,9.0047777E-1,1.8428946E-1,-1.1241613E-1,3.735863E-1,5.3686798E-2],"categories":[],"categories_nodes":[],"categories_segments":[],"categories_sizes":[],"default_left":[0,0,0,0,0,0,0,0,0,0,0,0,0,0,0,0,0,0,0],"id":16,"left_children":[1,3,5,-1,7,9,-1,-1,11,13,-1,-1,-1,15,17,-1,-1,-1,-1],"loss_changes":[1.9303744E0,1.5107553E0,3.3881514E0,0E0,2.950985E0,2.3857684E0,0E0,0E0,3.6613876E-1,1.5635483E0,0E0,0E0,0E0,1.4012765E0,5.7593894E-1,0E0,0E0,0E0,0E0],"parents":[2147483647,0,0,1,1,2,2,4,4,5,5,8,8,9,9,13,13,14,14],"right_children":[2,4,6,-1,8,10,-1,-1,12,14,-1,-1,-1,16,18,-1,-1,-1,-1],"split_conditions":[3.105E2,1.32E2,1E0,-1.3141996E-1,1.49E2,5.2E1,-1.14550106E-1,3.6670956E-1,1.57E3,1.6E2,5.1576E-1,-1.1165882E-1,4.7248825E-2,4.2E1,3.88E1,1.8428946E-1,-1.1241613E-1,3.735863E-1,5.3686798E-2],"split_indices":[1,4,7,0,4,3,0,0,2,4,0,0,0,4,3,0,0,0,0],"split_type":[0,0,0,0,0,0,0,0,0,0,0,0,0,0,0,0,0,0,0],"sum_hessian":[2.28328E1,1.2191429E1,1.0641372E1,6.990321E0,5.201108E0,7.448972E0,3.192399E0,1.0314114E0,4.1696963E0,6.422574E0,1.0263984E0,2.8897836E0,1.279913E0,4.211844E0,2.21073E0,1.242497E0,2.9693468E0,1.0046818E0,1.2060483E0],"tree_param":{"num_deleted":"0","num_feature":"8","num_nodes":"19","size_leaf_vector":"1"}},{"base_weights":[-3.9357804E-2,-1.4631957E-1,4.1010648E-1,4.622187E-1,-1.0101814E-1,9.812669E-1,3.0541167E-1,1.3129008E0,3.5384068E-1,5.070499E-1,-3.181388E-1,5.769125E-1,5.184945E-1,-9.8411046E-2,2.9602253E-1,3.3762246E-1,1.0431687E0,6.783925E-2,-1.3204546E-1,-8.877727E-2,3.5694486E-1,2.3089151E-1,-4.238423E-3,4.1959595E-2,4.0030476E-1],"categories":[],"categories_nodes":[],"categories_segments":[],"categories_sizes":[],"default_left":[0,0,0,0,0,0,0,0,0,0,0,0,0,0,0,0,0,0,0,0,0,0,0,0,0],"id":17,"left_children":[1,-1,3,5,-1,7,9,11,13,15,17,-1,19,-1,-1,21,23,-1,-1,-1,-1,-1,-1,-1,-1],"loss_changes":[1.48645315E1,0E0,1.5910711E0,2.540681E0,0E0,1.1261635E0,3.7136314E0,1.2482514E0,2.0553193E0,1.6220584E0,5.988021E-1,0E0,2.200887E0,0E0,0E0,2.7452917E0,1.0603232E0,0E0,0E0,0E0,0E0,0E0,0E0,0E0,0E0],"parents":[2147483647,0,0,2,2,3,3,5,5,6,6,7,7,8,8,9,9,10,10,12,12,15,15,16,16],"right_children":[2,-1,4,6,-1,8,10,12,14,16,18,-1,20,-1,-1,22,24,-1,-1,-1,-1,-1,-1,-1,-1],"split_conditions":[1.98E2,-1.4631957E-1,4.81E1,1.456E3,-1.0101814E-1,3.106E2,3.91E1,4.2E1,4.42E1,2.25E2,3.086E2,5.769125E-1,4.49E1,-9.8411046E-2,2.9602253E-1,1.568E3,2.992E2,6.783925E-2,-1.3204546E-1,-8.877727E-2,3.5694486E-1,2.3089151E-1,-4.238423E-3,4.1959595E-2,4.0030476E-1],"split_indices":[4,0,3,2,0,1,3,3,3,4,1,0,3,0,0,2,0,0,0,0,0,0,0,0,0],"split_type":[0,0,0,0,0,0,0,0,0,0,0,0,0,0,0,0,0,0,0,0,0,0,0,0,0],"sum_hessian":[7.176656E1,3.588423E1,3.588233E1,3.38981E1,1.984232E0,6.644915E0,2.7253185E1,3.632431E0,3.012484E0,2.0734938E1,6.518247E0,1.2509302E0,2.381501E0,1.6820084E0,1.3304756E0,1.699411E1,3.7408278E0,1.0373844E0,5.4808626E0,1.3287319E0,1.052769E0,7.093694E0,9.900416E0,1.272769E0,2.4680588E0],"tree_param":{"num_deleted":"0","num_feature":"8","num_nodes":"25","size_leaf_vector":"1"}},{"base_weights":[-4.5357564E-1,-5.1069105E-1,-7.785701E-2,-3.931948E-1,-7.232434E-1,2.2010529E-1,-1.3479728E-1,-5.097831E-1,2.6832497E-1,-2.4161914E-1,-1.3903685E-1,-9.518321E-2,5.240635E-1,-3.982896E-1,-7.5557107E-1,3.859022E-1,-9.542941E-2,1.5367354E-1,-1.9462715E-1,7.4740136E-1,-7.968381E-2,-1.4746024E-1,1.214719E-1,-9.1674626E-1,-1.3432083E-1,-5.9085198E-2,1.8189414E-1,1.0984051E-1,3.107523E-1,-1.9495702E-1,2.0849963E-1,-7.751032E-2,-2.8612107E-1,-1.1680763E-1,1.3576241E-1],"categories":[],"categories_nodes":[],"categories_segments":[],"categories_sizes":[],"default_left":[0,0,0,0,0,0,0,0,0,0,0,0,0,0,0,0,0,0,0,0,0,0,0,0,0,0,0,0,0,0,0,0,0,0,0],"id":18,"left_children":[1,3,5,7,9,11,-1,13,15,-1,-1,17,19,21,23,25,-1,-1,-1,27,-1,-1,29,31,-1,33,-1,-1,-1,-1,-1,-1,-1,-1,-1],"loss_changes":[3.0464096E0,2.8288422E0,2.3299656E0,6.497422E0,5.484371E-1,1.1861417E0,0E0,1.6299038E0,1.019952E0,0E0,0E0,2.573829E0,1.2902888E0,2.511366E0,6.2514687E-1,1.1432413E0,0E0,0E0,0E0,1.8026209E-1,0E0,0E0,4.210326E0,6.3978195E-2,0E0,9.6216017E-1,0E0,0E0,0E0,0E0,0E0,0E0,0E0,0E0,0E0],"parents":[2147483647,0,0,1,1,2,2,3,3,4,4,5,5,7,7,8,8,11,11,12,12,13,13,14,14,15,15,19,19,22,22,23,23,25,25],"right_children":[2,4,6,8,10,12,-1,14,16,-1,-1,18,20,22,24,26,-1,-1,-1,28,-1,-1,30,32,-1,34,-1,-1,-1,-1,-1,-1,-1,-1,-1],"split_conditions":[3.026E2,3.11E2,1.379E3,3.021E2,1.38E3,3.03E2,-1.3479728E-1,3.105E2,1.38E3,-2.4161914E-1,-1.3903685E-1,3.113E2,3.123E2,3.008E2,1.38E3,7.7E1,-9.542941E-2,1.5367354E-1,-1.9462715E-1,1.362E3,-7.968381E-2,-1.4746024E-1,4.77E1,3.016E2,-1.3432083E-1,1.358E3,1.8189414E-1,1.0984051E-1,3.107523E-1,-1.9495702E-1,2.0849963E-1,-7.751032E-2,-2.8612107E-1,-1.1680763E-1,1.3576241E-1],"split_indices":[0,1,2,0,2,0,0,1,2,0,0,1,1,0,2,4,0,0,0,2,0,0,3,0,0,2,0,0,0,0,0,0,0,0,0],"split_type":[0,0,0,0,0,0,0,0,0,0,0,0,0,0,0,0,0,0,0,0,0,0,0,0,0,0,0,0,0,0,0,0,0,0,0],"sum_hessian":[1.4281491E2,1.23657684E2,1.9157228E1,8.1471275E1,4.2186405E1,1.0856474E1,8.300755E0,6.9458984E1,1.2012291E1,3.0455206E1,1.17312E1,5.666061E0,5.190413E0,4.958629E1,1.9872698E1,1.0290912E1,1.7213788E0,2.7372148E0,2.9288461E0,4.0878215E0,1.1025914E0,4.2089756E1,7.4965343E0,1.174516E1,8.127537E0,3.6512868E0,6.639625E0,2.7380142E0,1.3498073E0,3.140214E0,4.3563204E0,1.0495416E0,1.0695619E1,2.3641322E0,1.2871547E0],"tree_param":{"num_deleted":"0","num_feature":"8","num_nodes":"35","size_leaf_vector":"1"}},{"base_weights":[3.26202E-1,4.1808805E-1,-9.611947E-2,4.3481037E-1,-5.449528E-2,-4.5200977E-2,-5.7900727E-1,6.837635E-1,3.9807633E-1,3.08785E-1,-4.2123732E-1,-6.268564E-1,-1.4405617E-2,9.298166E-2,-2.5341436E-1,3.600637E-1,2.1228793E-1,4.2132115E-1,5.0702695E-2,-1.168266E-1,5.7758427E-1,-1.1148892E-2,-1.5469974E-1,3.633693E-2,-3.20871E-1,1.3730313E-1,-1.2504828E-1,1.7925876E-1,-2.4032667E-2,4.4531697E-1,2.43494E-1,5.418156E-1,-4.6823242E-1,2.6005554E-1,-3.3197798E-2,2.898863E-1,-1.2860212E-1,-1.8826015E-1,1.2828684E-1,1.7133787E-1,1.2209969E-1,-8.366788E-2,1.1955465E-1,2.0177482E-1,7.139481E-2,6.381102E-2,-1.7757294E-1,1.0007312E-1,-6.259147E-2,-1.8358955E-1,-2.4809267E-3,-2.253066E-2,-1.301246E-1],"categories":[],"categories_nodes":[],"categories_segments":[],"categories_sizes":[],"default_left":[0,0,0,0,0,0,0,0,0,0,0,0,0,0,0,0,0,0,0,0,0,0,0,0,0,0,0,0,0,0,0,0,0,0,0,0,0,0,0,0,0,0,0,0,0,0,0,0,0,0,0,0,0],"id":19,"left_children":[1,3,5,7,9,11,13,15,17,19,21,23,25,-1,-1,27,-1,29,31,-1,33,-1,-1,-1,-1,35,37,-1,-1,39,41,43,45,-1,-1,47,49,51,-1,-1,-1,-1,-1,-1,-1,-1,-1,-1,-1,-1,-1,-1,-1],"loss_changes":[1.5607792E1,2.6289787E0,1.7564536E0,2.6406517E0,1.7495278E0,1.1851664E0,1.8752706E0,5.080223E-2,2.2391663E0,1.4792676E0,2.1555352E-1,1.2318331E0,1.0971524E0,0E0,0E0,5.445941E-1,0E0,1.0106506E0,5.0182824E0,0E0,1.1368285E0,0E0,0E0,0E0,0E0,1.1575403E0,1.3985868E0,0E0,0E0,8.757019E-1,2.814923E0,2.3997879E-1,9.366143E-1,0E0,0E0,4.584149E-1,6.207801E-1,9.2721915E-1,0E0,0E0,0E0,0E0,0E0,0E0,0E0,0E0,0E0,0E0,0E0,0E0,0E0,0E0,0E0],"parents":[2147483647,0,0,1,1,2,2,3,3,4,4,5,5,6,6,7,7,8,8,9,9,10,10,11,11,12,12,15,15,17,17,18,18,20,20,25,25,26,26,29,29,30,30,31,31,32,32,35,35,36,36,37,37],"right_children":[2,4,6,8,10,12,14,16,18,20,22,24,26,-1,-1,28,-1,30,32,-1,34,-1,-1,-1,-1,36,38,-1,-1,40,42,44,46,-1,-1,48,50,52,-1,-1,-1,-1,-1,-1,-1,-1,-1,-1,-1,-1,-1,-1,-1],"split_conditions":[2.05E2,6.58E1,5.28E1,1.326E3,1.281E3,3.079E2,1E0,2.8E1,5.89E1,3.09E2,4.1E1,2.968E2,2.14E2,9.298166E-2,-2.5341436E-1,5.48E1,2.1228793E-1,3.026E2,1.367E3,-1.168266E-1,3.11E2,-1.1148892E-2,-1.5469974E-1,3.633693E-2,-3.20871E-1,3.017E2,1E0,1.7925876E-1,-2.4032667E-2,1.384E3,1.374E3,3.008E2,3.082E2,2.6005554E-1,-3.3197798E-2,3.118E2,3.02E2,4.53E1,1.2828684E-1,1.7133787E-1,1.2209969E-1,-8.366788E-2,1.1955465E-1,2.0177482E-1,7.139481E-2,6.381102E-2,-1.7757294E-1,1.0007312E-1,-6.259147E-2,-1.8358955E-1,-2.4809267E-3,-2.253066E-2,-1.301246E-1],"split_indices":[4,3,3,2,2,1,6,4,3,1,4,0,4,0,0,3,0,0,2,0,1,0,0,0,0,0,5,0,0,2,2,0,1,0,0,1,0,3,0,0,0,0,0,0,0,0,0,0,0,0,0,0,0],"split_type":[0,0,0,0,0,0,0,0,0,0,0,0,0,0,0,0,0,0,0,0,0,0,0,0,0,0,0,0,0,0,0,0,0,0,0,0,0,0,0,0,0,0,0,0,0,0,0,0,0,0,0,0,0],"sum_hessian":[4.0017062E2,3.2867056E2,7.150005E1,3.1751526E2,1.1155328E1,6.566912E1,5.830928E0,3.8561745E1,2.789535E2,5.683504E0,5.4718237E0,2.3287473E0,6.3340374E1,1.3034977E0,4.5274305E0,3.752192E0,3.480955E1,2.6125827E2,1.769523E1,1.4551085E0,4.2283955E0,1.3548247E0,4.116999E0,1.1359421E0,1.1928052E0,2.6611206E1,3.6729168E1,2.2050936E0,1.5470983E0,2.2887053E2,3.2387753E1,9.068673E0,8.626556E0,2.7944007E0,1.4339948E0,1.685131E1,9.759895E0,3.3551117E1,3.1780524E0,5.0186974E1,1.7868355E2,7.228911E0,2.515884E1,5.491513E0,3.5771606E0,1.2153459E0,7.41121E0,1.5797671E1,1.053639E0,1.1310318E0,8.628864E0,2.3859163E1,9.691954E0],"tree_param":{"num_deleted":"0","num_feature":"8","num_nodes":"53","size_leaf_vector":"1"}},{"base_weights":[-3.581626E-1,-5.4341537E-1,1.7465156E-1,-5.720548E-1,3.6813814E-2,-3.8684902E-1,5.7498664E-1,-1.4748214E-1,-7.6144725E-1,-9.3934335E-2,1.1392867E-1,-1.4085954E-1,6.452731E-2,7.7519095E-1,-1.4291802E-1,-9.824377E-1,-4.420072E-1,8.1566185E-1,4.7476187E-2,-3.194707E-1,-9.23094E-2,-6.6966397E-1,1.070888E-1,7.843011E-2,8.872487E-1,-2.8617302E-1,-1.3393223E-1,3.2854944E-1,1.5504026E-1],"categories":[],"categories_nodes":[],"categories_segments":[],"categories_sizes":[],"default_left":[0,0,0,0,0,0,0,0,0,0,0,0,0,0,0,0,0,0,0,0,0,0,0,0,0,0,0,0,0],"id":20,"left_children":[1,3,5,7,9,11,13,-1,15,-1,-1,-1,-1,17,-1,19,21,23,-1,-1,-1,25,-1,-1,27,-1,-1,-1,-1],"loss_changes":[9.288768E0,1.173605E0,5.794255E0,6.3362503E-1,6.231697E-1,6.442138E-1,3.4997864E0,0E0,8.2945824E-1,0E0,0E0,0E0,0E0,1.9235659E-1,0E0,2.1558094E-1,1.9011571E0,2.3782921E-1,0E0,0E0,0E0,4.7430515E-2,0E0,0E0,2.095151E-1,0E0,0E0,0E0,0E0],"parents":[2147483647,0,0,1,1,2,2,3,3,4,4,5,5,6,6,8,8,13,13,15,15,16,16,17,17,21,21,24,24],"right_children":[2,4,6,8,10,12,14,-1,16,-1,-1,-1,-1,18,-1,20,22,24,-1,-1,-1,26,-1,-1,28,-1,-1,-1,-1],"split_conditions":[2.07E2,6.2E1,4.87E1,5.56E1,1.74E2,2.4E2,1E0,-1.4748214E-1,1E0,-9.3934335E-2,1.1392867E-1,-1.4085954E-1,6.452731E-2,3.123E2,-1.4291802E-1,5.96E1,1.95E2,3.085E2,4.7476187E-2,-3.194707E-1,-9.23094E-2,5.69E1,1.070888E-1,7.843011E-2,3.006E2,-2.8617302E-1,-1.3393223E-1,3.2854944E-1,1.5504026E-1],"split_indices":[4,3,3,3,4,4,7,0,6,0,0,0,0,1,0,3,4,1,0,0,0,3,0,0,0,0,0,0,0],"split_type":[0,0,0,0,0,0,0,0,0,0,0,0,0,0,0,0,0,0,0,0,0,0,0,0,0,0,0,0,0],"sum_hessian":[9.2144554E1,6.835759E1,2.3786966E1,6.515567E1,3.2019157E0,9.914628E0,1.3872338E1,4.8254467E1,1.6901203E1,1.6278883E0,1.5740275E0,8.910629E0,1.0039992E0,1.1873981E1,1.9983577E0,8.763243E0,8.13796E0,1.0840717E1,1.0332634E0,7.293599E0,1.4696434E0,6.4593015E0,1.678659E0,1.7722062E0,9.068511E0,1.4014236E0,5.057878E0,4.555425E0,4.5130863E0],"tree_param":{"num_deleted":"0","num_feature":"8","num_nodes":"29","size_leaf_vector":"1"}},{"base_weights":[-3.024525E-1,-3.7901807E-1,3.3822766E-1,-1.9254807E-1,-2.947677E-1,3.186462E-2,2.1767692E-1,-4.071444E-1,6.075347E-1,-1.573607E-1,1.4159445E-1,1.2618545E-2,-4.6967626E-1,-5.0743E-2,7.4920434E-1,3.2136548E-1,-1.656884E-1,1.8575394E-1,-1.4923134E-1,6.1577674E-2,-1.4516087E-1,3.584129E-1,1.0193112E0,2.1691903E-2,1.288804E-1,1.421386E-1,-2.6258275E-2,-9.1457E-2,2.0024092E-1,5.2288562E-2,3.8773257E-1],"categories":[],"categories_nodes":[],"categories_segments":[],"categories_sizes":[],"default_left":[0,0,0,0,0,0,0,0,0,0,0,0,0,0,0,0,0,0,0,0,0,0,0,0,0,0,0,0,0,0,0],"id":21,"left_children":[1,3,5,-1,7,9,-1,11,13,15,-1,17,19,-1,21,23,-1,25,-1,-1,-1,27,29,-1,-1,-1,-1,-1,-1,-1,-1],"loss_changes":[5.8340616E0,2.1218014E0,1.5131438E0,0E0,8.448912E0,7.6336807E-1,0E0,1.9096212E0,1.1565471E0,1.4133009E0,0E0,1.008794E0,7.0425224E-1,0E0,4.8963404E-1,6.563029E-2,0E0,7.0862776E-1,0E0,0E0,0E0,1.1982137E0,7.5495577E-1,0E0,0E0,0E0,0E0,0E0,0E0,0E0,0E0],"parents":[2147483647,0,0,1,1,2,2,4,4,5,5,7,7,8,8,9,9,11,11,12,12,14,14,15,15,17,17,21,21,22,22],"right_children":[2,4,6,-1,8,10,-1,12,14,16,-1,18,20,-1,22,24,-1,26,-1,-1,-1,28,30,-1,-1,-1,-1,-1,-1,-1,-1],"split_conditions":[6.58E1,1.367E3,1.289E3,-1.9254807E-1,5.83E1,3.121E2,2.1767692E-1,1.37E1,3.082E2,3E2,1.4159445E-1,1E0,3.065E2,-5.0743E-2,1.03E2,2.981E2,-1.656884E-1,3.006E2,-1.4923134E-1,6.1577674E-2,-1.4516087E-1,6.11E1,1.4E3,2.1691903E-2,1.288804E-1,1.421386E-1,-2.6258275E-2,-9.1457E-2,2.0024092E-1,5.2288562E-2,3.8773257E-1],"split_indices":[3,2,2,0,3,1,0,3,1,0,0,5,1,0,4,0,0,0,0,0,0,3,2,0,0,0,0,0,0,0,0],"split_type":[0,0,0,0,0,0,0,0,0,0,0,0,0,0,0,0,0,0,0,0,0,0,0,0,0,0,0,0,0,0,0],"sum_hessian":[1.1531797E2,1.0337266E2,1.194531E1,2.3487661E1,7.9884995E1,7.274331E0,4.670978E0,7.152565E1,8.359345E0,5.536435E0,1.7378964E0,9.377142E0,6.214851E1,1.2596446E0,7.0997005E0,2.5869265E0,2.9495087E0,7.4754605E0,1.9016811E0,1.002755E0,6.1145756E1,3.8526313E0,3.2470694E0,1.2889638E0,1.2979625E0,3.282231E0,4.193229E0,1.2288901E0,2.6237411E0,1.193314E0,2.0537553E0],"tree_param":{"num_deleted":"0","num_feature":"8","num_nodes":"31","size_leaf_vector":"1"}},{"base_weights":[1.6756757E-1,3.387394E-1,-2.7391288E-1,-1.1681769E-1,5.7171404E-1,7.349885E-2,-1.23461805E-1,7.4453044E-1,-9.555724E-2,9.3778783E-1,-2.5592485E-2,3.495371E-1,1.827357E0,-8.028565E-2,7.3593594E-2,3.2153523E-1,-5.258503E-2,1.874654E-1,6.7468923E-1],"categories":[],"categories_nodes":[],"categories_segments":[],"categories_sizes":[],"default_left":[0,0,0,0,0,0,0,0,0,0,0,0,0,0,0,0,0,0,0],"id":22,"left_children":[1,3,5,-1,7,-1,-1,9,-1,11,13,15,17,-1,-1,-1,-1,-1,-1],"loss_changes":[1.7310977E0,2.9486046E0,5.7288975E-1,0E0,2.1724672E0,0E0,0E0,1.6364565E0,0E0,3.9072385E0,2.7197236E-1,2.6387305E0,2.2785282E-1,0E0,0E0,0E0,0E0,0E0,0E0],"parents":[2147483647,0,0,1,1,2,2,4,4,7,7,9,9,10,10,11,11,12,12],"right_children":[2,4,6,-1,8,-1,-1,10,-1,12,14,16,18,-1,-1,-1,-1,-1,-1],"split_conditions":[1E0,2.986E2,2.981E2,-1.1681769E-1,1.671E3,7.349885E-2,-1.23461805E-1,1.9E2,-9.555724E-2,1.4E2,2.11E2,4.2E1,1.48E3,-8.028565E-2,7.3593594E-2,3.2153523E-1,-5.258503E-2,1.874654E-1,6.7468923E-1],"split_indices":[7,0,0,0,2,0,0,4,0,4,4,4,2,0,0,0,0,0,0],"split_type":[0,0,0,0,0,0,0,0,0,0,0,0,0,0,0,0,0,0,0],"sum_hessian":[2.0679684E1,1.5069587E1,5.6100965E0,3.490159E0,1.1579428E1,1.0124785E0,4.597618E0,9.834073E0,1.7453547E0,7.6872864E0,2.1467865E0,5.4658074E0,2.2214787E0,1.1402311E0,1.0065554E0,1.8616513E0,3.6041563E0,1.2210503E0,1.0004283E0],"tree_param":{"num_deleted":"0","num_feature":"8","num_nodes":"19","size_leaf_vector":"1"}},{"base_weights":[-1.0733873E-2,-1.449931E-1,3.2296798E-1,3.6225167E-1,-9.782865E-2,2.8975528E-1,3.829209E-1,7.728906E-1,1.6360325E-1,-7.3447555E-2,1.1952761E0,5.044377E-1,2.0957148E-2,7.007279E-2,-9.0840764E-2,4.2912936E-1,1.3221657E-1,-5.2046496E-2,2.8616887E-1,-8.138671E-2,6.560203E-2],"categories":[],"categories_nodes":[],"categories_segments":[],"categories_sizes":[],"default_left":[0,0,0,0,0,0,0,0,0,0,0,0,0,0,0,0,0,0,0,0,0],"id":23,"left_children":[1,-1,3,5,-1,7,-1,9,11,13,15,17,19,-1,-1,-1,-1,-1,-1,-1,-1],"loss_changes":[1.0777434E1,0E0,1.1399617E0,2.1659002E0,0E0,2.113079E0,0E0,2.7114825E0,1.4676886E0,3.0912897E-1,2.485733E-1,2.8856642E0,1.3581306E0,0E0,0E0,0E0,0E0,0E0,0E0,0E0,0E0],"parents":[2147483647,0,0,2,2,3,3,5,5,7,7,8,8,9,9,10,10,11,11,12,12],"right_children":[2,-1,4,6,-1,8,-1,10,12,14,16,18,20,-1,-1,-1,-1,-1,-1,-1,-1],"split_conditions":[1.98E2,-1.449931E-1,4.81E1,4.63E1,-9.782865E-2,3.09E2,3.829209E-1,2.974E2,3.07E1,3.62E1,1.544E3,2.17E2,3.105E2,7.007279E-2,-9.0840764E-2,4.2912936E-1,1.3221657E-1,-5.2046496E-2,2.8616887E-1,-8.138671E-2,6.560203E-2],"split_indices":[4,0,3,3,0,1,0,0,3,3,2,4,1,0,0,0,0,0,0,0,0],"split_type":[0,0,0,0,0,0,0,0,0,0,0,0,0,0,0,0,0,0,0,0,0],"sum_hessian":[6.6351715E1,2.7276043E1,3.907567E1,3.7262306E1,1.8133641E0,3.5744564E1,1.517741E0,6.3393908E0,2.9405174E1,2.3855507E0,3.9538403E0,7.9273963E0,2.1477777E1,1.01219E0,1.3733606E0,2.3315027E0,1.6223375E0,3.4052322E0,4.522164E0,8.516844E0,1.2960935E1],"tree_param":{"num_deleted":"0","num_feature":"8","num_nodes":"21","size_leaf_vector":"1"}},{"base_weights":[-4.026945E-1,-4.475467E-1,9.324695E-3,-3.3195853E-1,-6.371267E-1,4.7214663E-1,-1.23158984E-1,-4.764758E-1,3.1515282E-1,-6.583084E-1,-3.3034036E-1,6.529175E-1,-7.713231E-2,-3.7363338E-1,-6.774299E-1,4.2598966E-1,-9.2901334E-2,-2.1308869E-1,-1.3602567E-1,8.371342E-2,-1.7867547E-1,1.0177805E-1,2.9688483E-1,2.4019836E-1,-4.706587E-1,-2.313538E-1,-1.3036846E-1,3.176056E-2,1.8153492E-1,-1.11022875E-1,2.4762137E-1,-1.519059E-1,5.6537062E-2,-8.817609E-2,1.387534E-1],"categories":[],"categories_nodes":[],"categories_segments":[],"categories_sizes":[],"default_left":[0,0,0,0,0,0,0,0,0,0,0,0,0,0,0,0,0,0,0,0,0,0,0,0,0,0,0,0,0,0,0,0,0,0,0],"id":24,"left_children":[1,3,5,7,9,11,-1,13,15,17,19,21,-1,23,25,27,-1,-1,-1,-1,-1,-1,-1,29,31,-1,-1,33,-1,-1,-1,-1,-1,-1,-1],"loss_changes":[2.2580051E0,2.199131E0,2.7107918E0,6.7365313E0,4.6232224E-2,1.0413932E0,0E0,9.449167E-1,1.0640043E0,7.153511E-2,9.142583E-1,2.5487566E-1,0E0,2.529594E0,8.3685875E-2,8.1774974E-1,0E0,0E0,0E0,0E0,0E0,0E0,0E0,2.519789E0,9.2767954E-1,0E0,0E0,8.0346245E-1,0E0,0E0,0E0,0E0,0E0,0E0,0E0],"parents":[2147483647,0,0,1,1,2,2,3,3,4,4,5,5,7,7,8,8,9,9,10,10,11,11,13,13,14,14,15,15,23,23,24,24,27,27],"right_children":[2,4,6,8,10,12,-1,14,16,18,20,22,-1,24,26,28,-1,-1,-1,-1,-1,-1,-1,30,32,-1,-1,34,-1,-1,-1,-1,-1,-1,-1],"split_conditions":[3.027E2,3.11E2,1.376E3,3.021E2,3.026E2,3.123E2,-1.23158984E-1,3.105E2,1.38E3,1.38E3,3.116E2,1.362E3,-7.713231E-2,1.345E3,1.38E3,7.7E1,-9.2901334E-2,-2.1308869E-1,-1.3602567E-1,8.371342E-2,-1.7867547E-1,1.0177805E-1,2.9688483E-1,3.008E2,3.019E2,-2.313538E-1,-1.3036846E-1,1.358E3,1.8153492E-1,-1.11022875E-1,2.4762137E-1,-1.519059E-1,5.6537062E-2,-8.817609E-2,1.387534E-1],"split_indices":[0,1,2,0,0,1,0,1,2,2,1,2,0,2,2,4,0,0,0,0,0,0,0,0,0,0,0,2,0,0,0,0,0,0,0],"split_type":[0,0,0,0,0,0,0,0,0,0,0,0,0,0,0,0,0,0,0,0,0,0,0,0,0,0,0,0,0,0,0,0,0,0,0],"sum_hessian":[1.2096098E2,1.0900819E2,1.1952801E1,6.942831E1,3.9579876E1,5.6262364E0,6.3265643E0,5.6969242E1,1.2459066E1,3.59518E1,3.6280737E0,4.5925035E0,1.0337329E0,3.9575146E1,1.7394096E1,1.0852226E1,1.60684E0,2.6708303E1,9.243499E0,1.0844891E0,2.5435843E0,3.416972E0,1.1755314E0,5.2002254E0,3.437492E1,1.0980304E1,6.413793E0,3.7582438E0,7.0939827E0,2.7255428E0,2.4746828E0,3.282885E1,1.546072E0,2.3210254E0,1.4372184E0],"tree_param":{"num_deleted":"0","num_feature":"8","num_nodes":"35","size_leaf_vector":"1"}},{"base_weights":[2.7613157E-1,3.7054086E-1,-5.407862E-2,3.8694564E-1,-4.5461807E-2,-7.8518726E-2,1.8891309E-1,4.1314918E-1,2.0134552E-1,2.4940303E-1,-3.7203288E-1,-3.1515487E-2,-6.1941195E-1,4.9597973E-1,3.603599E-1,3.6752585E-2,4.8758513E-1,-1.0759832E-1,4.7293234E-1,-6.3949297E-3,-1.40898E-1,-1.2386071E-2,-2.0393597E-1,-3.202497E-2,-2.1017662E-1,3.920167E-1,6.524561E-1,4.0073198E-1,-4.57256E-1,3.2121444E-1,-2.8660777E-1,1.6206609E-1,1.1758085E-3,2.094429E-1,-2.9084507E-2,-5.99509E-2,3.518409E-1,1.6587593E-1,-1.1024854E-1,7.480481E-2,2.1342768E-1,1.2359247E-1,1.7439894E-2,-1.4499997E-2,-2.4037969E-1,-1.8282467E-2,1.3180858E-1,1.587367E-2,-1.9701055E-1,-6.8441345E-3,-2.1448518E-1,1.4337477E-1,1.7558474E-2],"categories":[],"categories_nodes":[],"categories_segments":[],"categories_sizes":[],"default_left":[0,0,0,0,0,0,0,0,0,0,0,0,0,0,0,0,0,0,0,0,0,0,0,0,0,0,0,0,0,0,0,0,0,0,0,0,0,0,0,0,0,0,0,0,0,0,0,0,0,0,0,0,0],"id":25,"left_children":[1,3,5,7,9,11,-1,13,15,17,19,21,23,25,27,29,31,-1,33,-1,-1,35,-1,-1,-1,37,39,41,43,45,47,-1,-1,-1,-1,49,51,-1,-1,-1,-1,-1,-1,-1,-1,-1,-1,-1,-1,-1,-1,-1,-1],"loss_changes":[1.0933203E1,1.8762779E0,1.3647529E0,1.1916504E0,1.1739426E0,1.935009E0,0E0,8.2149124E-1,1.6018422E0,1.052954E0,1.861369E-1,8.817921E-1,1.7877674E-1,1.1494751E0,4.915619E0,2.1994152E0,3.153491E-1,0E0,7.329265E-1,0E0,0E0,1.246729E0,0E0,0E0,0E0,6.8519316E0,6.0650635E-1,5.0434303E-1,9.7596383E-1,5.983685E-1,1.4484117E0,0E0,0E0,0E0,0E0,1.5265865E0,2.795961E-1,0E0,0E0,0E0,0E0,0E0,0E0,0E0,0E0,0E0,0E0,0E0,0E0,0E0,0E0,0E0,0E0],"parents":[2147483647,0,0,1,1,2,2,3,3,4,4,5,5,7,7,8,8,9,9,10,10,11,11,12,12,13,13,14,14,15,15,16,16,18,18,21,21,25,25,26,26,27,27,28,28,29,29,30,30,35,35,36,36],"right_children":[2,4,6,8,10,12,-1,14,16,18,20,22,24,26,28,30,32,-1,34,-1,-1,36,-1,-1,-1,38,40,42,44,46,48,-1,-1,-1,-1,50,52,-1,-1,-1,-1,-1,-1,-1,-1,-1,-1,-1,-1,-1,-1,-1,-1],"split_conditions":[2.03E2,6.58E1,5.56E1,3.026E2,1.281E3,5.28E1,1.8891309E-1,1.386E3,3.126E2,3.09E2,4.1E1,3.131E2,1E0,3.11E2,5.73E1,4.81E1,2.262E3,-1.0759832E-1,3.11E2,-6.3949297E-3,-1.40898E-1,3.028E2,-2.0393597E-1,-3.202497E-2,-2.1017662E-1,3.021E2,3.008E2,1.98E2,1.411E3,2.88E1,1.354E3,1.6206609E-1,1.1758085E-3,2.094429E-1,-2.9084507E-2,3.026E2,3.034E2,1.6587593E-1,-1.1024854E-1,7.480481E-2,2.1342768E-1,1.2359247E-1,1.7439894E-2,-1.4499997E-2,-2.4037969E-1,-1.8282467E-2,1.3180858E-1,1.587367E-2,-1.9701055E-1,-6.8441345E-3,-2.1448518E-1,1.4337477E-1,1.7558474E-2],"split_indices":[4,3,3,0,2,3,0,2,1,1,4,1,6,1,3,3,2,0,1,0,0,0,0,0,0,0,0,4,2,3,2,0,0,0,0,0,0,0,0,0,0,0,0,0,0,0,0,0,0,0,0,0,0],"split_type":[0,0,0,0,0,0,0,0,0,0,0,0,0,0,0,0,0,0,0,0,0,0,0,0,0,0,0,0,0,0,0,0,0,0,0,0,0,0,0,0,0,0,0,0,0,0,0,0,0,0,0,0,0],"sum_hessian":[3.4906256E2,2.713575E2,7.770504E1,2.6112988E2,1.0227622E1,7.587816E1,1.8268805E0,2.2774953E2,3.3380356E1,5.4988995E0,4.728723E0,7.078524E1,5.0929217E0,8.538236E1,1.4236717E2,2.191007E1,1.1470287E1,1.315587E0,4.1833124E0,1.2949784E0,3.4337444E0,6.974625E1,1.0389913E0,1.0126542E0,4.0802674E0,5.3405193E1,3.1977169E1,1.3615407E2,6.213106E0,1.165965E1,1.0250421E1,1.0239085E1,1.2312021E0,2.8370664E0,1.346246E0,6.2428974E1,7.317271E0,4.429358E1,9.111613E0,4.748122E0,2.7229046E1,1.3163185E2,4.522208E0,3.3598123E0,2.853294E0,2.8677878E0,8.791862E0,5.7930098E0,4.4574103E0,6.005861E1,2.370368E0,4.677403E0,2.6398678E0],"tree_param":{"num_deleted":"0","num_feature":"8","num_nodes":"53","size_leaf_vector":"1"}},{"base_weights":[-3.277238E-1,-5.097724E-1,1.2038172E-1,-5.4497164E-1,-1.33854775E-2,-1.3688493E-1,3.9119202E-1,-6.3621324E-1,-4.5462012E-1,-9.58536E-2,1.1334094E-1,5.767447E-1,-4.7900832E-1,-1.4097106E-1,-2.5567487E-1,-5.104221E-1,3.2436628E-2,2.8614244E-1,2.1947949E-1,-6.495593E-4,-2.0093994E-1,-1.5783894E-1,-1.7598934E-2,-9.010143E-2,1.02176316E-1,-1.2218809E-1,2.4103183E-1],"categories":[],"categories_nodes":[],"categories_segments":[],"categories_sizes":[],"default_left":[0,0,0,0,0,0,0,0,0,0,0,0,0,0,0,0,0,0,0,0,0,0,0,0,0,0,0],"id":26,"left_children":[1,3,5,7,9,-1,11,13,15,-1,-1,17,19,-1,-1,21,23,25,-1,-1,-1,-1,-1,-1,-1,-1,-1],"loss_changes":[6.639387E0,9.9792194E-1,3.9427774E0,1.5343094E-1,6.9967854E-1,0E0,3.0115583E0,4.6948338E-1,8.450594E-1,0E0,0E0,4.394164E-1,3.1911695E-1,0E0,0E0,1.6363859E-1,5.200322E-1,2.714102E0,0E0,0E0,0E0,0E0,0E0,0E0,0E0,0E0,0E0],"parents":[2147483647,0,0,1,1,2,2,3,3,4,4,6,6,7,7,8,8,11,11,12,12,15,15,16,16,17,17],"right_children":[2,4,6,8,10,-1,12,14,16,-1,-1,18,20,-1,-1,22,24,26,-1,-1,-1,-1,-1,-1,-1,-1,-1],"split_conditions":[2.07E2,6.11E1,4.63E1,1E0,1.79E2,-1.3688493E-1,1E0,5.58E1,1.95E2,-9.58536E-2,1.1334094E-1,5.06E1,1.363E3,-1.4097106E-1,-2.5567487E-1,6.05E1,5.45E1,2.22E2,2.1947949E-1,-6.495593E-4,-2.0093994E-1,-1.5783894E-1,-1.7598934E-2,-9.010143E-2,1.02176316E-1,-1.2218809E-1,2.4103183E-1],"split_indices":[4,3,3,6,4,0,7,3,4,0,0,3,2,0,0,3,3,4,0,0,0,0,0,0,0,0,0],"split_type":[0,0,0,0,0,0,0,0,0,0,0,0,0,0,0,0,0,0,0,0,0,0,0,0,0,0,0],"sum_hessian":[7.963575E1,5.6531494E1,2.3104256E1,5.2696835E1,3.8346596E0,7.1641016E0,1.5940154E1,2.321332E1,2.9483515E1,2.254005E0,1.5806545E0,1.341657E1,2.5235848E0,1.49102125E1,8.303107E0,2.6409779E1,3.0737357E0,5.6539836E0,7.7625856E0,1.0101858E0,1.5133991E0,2.5363272E1,1.0465075E0,1.4900132E0,1.5837224E0,2.506574E0,3.1474097E0],"tree_param":{"num_deleted":"0","num_feature":"8","num_nodes":"27","size_leaf_vector":"1"}},{"base_weights":[-2.663659E-1,-3.3941016E-1,2.9832903E-1,-1.779458E-1,-2.5915655E-1,3.492992E-2,1.8868953E-1,-3.727371E-1,4.6846426E-1,-1.4285605E-1,1.301975E-1,-6.41601E-2,-1.4814943E-1,1.7893174E-1,8.692805E-1,2.911958E-1,-1.5164949E-1,1.658716E-1,-1.357061E-1,-1.19907625E-1,5.361353E-1,4.784193E-2,3.32328E-1,2.182329E-2,1.1384741E-1,-8.68644E-2,8.811673E-2,2.1578865E-1,4.5951023E-3],"categories":[],"categories_nodes":[],"categories_segments":[],"categories_sizes":[],"default_left":[0,0,0,0,0,0,0,0,0,0,0,0,0,0,0,0,0,0,0,0,0,0,0,0,0,0,0,0,0],"id":27,"left_children":[1,3,5,-1,7,9,-1,11,13,15,-1,17,-1,19,21,23,-1,-1,25,-1,27,-1,-1,-1,-1,-1,-1,-1,-1],"loss_changes":[4.183666E0,1.6404238E0,1.0116233E0,0E0,5.8531065E0,6.057806E-1,0E0,2.209961E0,9.725199E-1,1.1002386E0,0E0,8.721938E-1,0E0,1.6410315E0,4.6956515E-1,3.7790865E-2,0E0,0E0,1.2070285E0,0E0,4.368719E-1,0E0,0E0,0E0,0E0,0E0,0E0,0E0,0E0],"parents":[2147483647,0,0,1,1,2,2,4,4,5,5,7,7,8,8,9,9,11,11,13,13,14,14,15,15,18,18,20,20],"right_children":[2,4,6,-1,8,10,-1,12,14,16,-1,18,-1,20,22,24,-1,-1,26,-1,28,-1,-1,-1,-1,-1,-1,-1,-1],"split_conditions":[6.58E1,1.367E3,1.289E3,-1.779458E-1,5.83E1,3.121E2,1.8868953E-1,1.57E1,1.418E3,3E2,1.301975E-1,2.97E2,-1.4814943E-1,6.11E1,1.03E2,2.981E2,-1.5164949E-1,1.658716E-1,3.018E2,-1.19907625E-1,1.28E2,4.784193E-2,3.32328E-1,2.182329E-2,1.1384741E-1,-8.68644E-2,8.811673E-2,2.1578865E-1,4.5951023E-3],"split_indices":[3,2,2,0,3,1,0,3,2,0,0,0,0,3,4,0,0,0,0,0,4,0,0,0,0,0,0,0,0],"split_type":[0,0,0,0,0,0,0,0,0,0,0,0,0,0,0,0,0,0,0,0,0,0,0,0,0,0,0,0,0],"sum_hessian":[9.797299E1,8.710479E1,1.0868204E1,1.9394157E1,6.771063E1,6.664565E0,4.2036386E0,5.8990093E1,8.720536E0,5.0546765E0,1.6098887E0,1.7056335E1,4.1933758E1,5.9029303E0,2.817606E0,2.3904853E0,2.6641912E0,1.0731063E0,1.598323E1,2.2077355E0,3.6951947E0,1.1282382E0,1.6893679E0,1.2130811E0,1.1774042E0,1.2007356E1,3.975874E0,2.4518478E0,1.2433469E0],"tree_param":{"num_deleted":"0","num_feature":"8","num_nodes":"29","size_leaf_vector":"1"}},{"base_weights":[2.0855366E-1,3.5581318E-1,-2.3655406E-1,-1.1155212E-1,5.47786E-1,7.242132E-2,-1.1796861E-1,6.7975426E-1,-8.862951E-2,8.035689E-1,-7.824033E-2,9.675392E-1,8.172487E-3,1.3575025E-1,4.5077553E-1],"categories":[],"categories_nodes":[],"categories_segments":[],"categories_sizes":[],"default_left":[0,0,0,0,0,0,0,0,0,0,0,0,0,0,0],"id":28,"left_children":[1,3,5,-1,7,-1,-1,9,-1,11,-1,13,-1,-1,-1],"loss_changes":[1.4229957E0,2.403421E0,5.2014655E-1,0E0,1.63234E0,0E0,0E0,1.5402298E0,0E0,1.2901554E0,0E0,1.6651125E0,0E0,0E0,0E0],"parents":[2147483647,0,0,1,1,2,2,4,4,7,7,9,9,11,11],"right_children":[2,4,6,-1,8,-1,-1,10,-1,12,-1,14,-1,-1,-1],"split_conditions":[1E0,3.09E2,1.406E3,-1.1155212E-1,1.671E3,7.242132E-2,-1.1796861E-1,3.03E2,-8.862951E-2,1.9E2,-7.824033E-2,1.4E2,8.172487E-3,1.3575025E-1,4.5077553E-1],"split_indices":[7,1,2,0,2,0,0,0,0,4,0,4,0,0,0],"split_type":[0,0,0,0,0,0,0,0,0,0,0,0,0,0,0],"sum_hessian":[1.9425648E1,1.4747272E1,4.6783767E0,2.8829184E0,1.1864353E1,1.0214614E0,3.6569154E0,1.0426417E1,1.4379354E0,9.342248E0,1.0841693E0,7.509783E0,1.8324656E0,4.7668796E0,2.7429032E0],"tree_param":{"num_deleted":"0","num_feature":"8","num_nodes":"15","size_leaf_vector":"1"}},{"base_weights":[1.5518408E-2,-1.4343093E-1,2.7399054E-1,7.328935E-1,2.143772E-1,4.730375E-1,-9.788162E-2,-2.2882085E-1,2.7330074E-1,-1.1815043E-1,6.280303E-2,5.6492907E-1,1.7019592E-1,7.197029E-1,-7.900411E-2,3.0092415E-1,-2.8778952E-1,1.4821433E-2,2.6414722E-1,3.2044884E-2,2.0919843E-1,6.9384135E-2,-1.2762393E-1],"categories":[],"categories_nodes":[],"categories_segments":[],"categories_sizes":[],"default_left":[0,0,0,0,0,0,0,0,0,0,0,0,0,0,0,0,0,0,0,0,0,0,0],"id":29,"left_children":[1,-1,3,5,7,-1,-1,9,11,-1,-1,13,15,17,-1,19,21,-1,-1,-1,-1,-1,-1],"loss_changes":[8.181336E0,0E0,9.9317884E-1,4.465869E0,1.0712771E0,0E0,0E0,4.4954127E-1,9.427111E-1,0E0,0E0,1.2911589E0,1.7005422E0,7.657087E-1,0E0,1.576724E0,5.6251687E-1,0E0,0E0,0E0,0E0,0E0,0E0],"parents":[2147483647,0,0,2,2,3,3,4,4,7,7,8,8,11,11,12,12,13,13,15,15,16,16],"right_children":[2,-1,4,6,8,-1,-1,10,12,-1,-1,14,16,18,-1,20,22,-1,-1,-1,-1,-1,-1],"split_conditions":[1.98E2,-1.4343093E-1,2.04E2,3.097E2,2.06E2,4.730375E-1,-9.788162E-2,3.111E2,1.456E3,-1.1815043E-1,6.280303E-2,4.81E1,3.91E1,4.07E1,-7.900411E-2,3.56E1,3.085E2,1.4821433E-2,2.6414722E-1,3.2044884E-2,2.0919843E-1,6.9384135E-2,-1.2762393E-1],"split_indices":[4,0,4,1,4,0,0,1,2,0,0,3,3,3,0,3,1,0,0,0,0,0,0],"split_type":[0,0,0,0,0,0,0,0,0,0,0,0,0,0,0,0,0,0,0,0,0,0,0],"sum_hessian":[6.2096676E1,2.1048748E1,4.1047928E1,3.4207683E0,3.762716E1,1.6318603E0,1.788908E0,4.077156E0,3.3550003E1,3.0352452E0,1.0419106E0,7.5933394E0,2.5956663E1,6.50827E0,1.0850693E0,2.0459581E1,5.497082E0,1.5120491E0,4.996221E0,1.4586462E1,5.8731184E0,1.009407E0,4.487675E0],"tree_param":{"num_deleted":"0","num_feature":"8","num_nodes":"23","size_leaf_vector":"1"}},{"base_weights":[-3.6394522E-1,-4.03609E-1,8.8145636E-2,-3.1173792E-1,-6.0054445E-1,5.0709033E-1,-1.1910789E-1,-4.5407873E-1,1.8485111E-1,-1.8547444E-1,-5.6911577E-2,2.004096E-1,2.4013971E-1,-3.4184325E-1,-1.855102E-1,2.8140903E-1,-9.8852605E-2,1.0471975E-1,-2.4090728E-2,-1.4495127E-1,1.9292563E-1,3.7516156E-1,-1.1129346E-1,-1.7153749E-1,1.9558512E-1,1.1063165E-2,1.6858448E-1,5.992877E-2,-1.06608756E-1],"categories":[],"categories_nodes":[],"categories_segments":[],"categories_sizes":[],"default_left":[0,0,0,0,0,0,0,0,0,0,0,0,0,0,0,0,0,0,0,0,0,0,0,0,0,0,0,0,0],"id":30,"left_children":[1,3,5,7,9,11,-1,13,15,-1,-1,17,-1,19,-1,21,-1,-1,-1,-1,23,25,27,-1,-1,-1,-1,-1,-1],"loss_changes":[1.8705168E0,1.5181179E0,2.0457988E0,4.7739882E0,9.294224E-2,3.1721652E-1,0E0,7.4484444E-1,8.6216867E-1,0E0,0E0,1.920064E-1,0E0,2.59081E0,0E0,5.418439E-1,0E0,0E0,0E0,0E0,3.0484836E0,6.86602E-1,3.2828206E-1,0E0,0E0,0E0,0E0,0E0,0E0],"parents":[2147483647,0,0,1,1,2,2,3,3,4,4,5,5,7,7,8,8,11,11,13,13,15,15,20,20,21,21,22,22],"right_children":[2,4,6,8,10,12,-1,14,16,-1,-1,18,-1,20,-1,22,-1,-1,-1,-1,24,26,28,-1,-1,-1,-1,-1,-1],"split_conditions":[3.03E2,3.111E2,1.379E3,3.021E2,3.027E2,1.362E3,-1.1910789E-1,3.105E2,1.38E3,-1.8547444E-1,-5.6911577E-2,3.119E2,2.4013971E-1,3.008E2,-1.855102E-1,3.11E2,-9.8852605E-2,1.0471975E-1,-2.4090728E-2,-1.4495127E-1,4.77E1,7.7E1,1.55E2,-1.7153749E-1,1.9558512E-1,1.1063165E-2,1.6858448E-1,5.992877E-2,-1.06608756E-1],"split_indices":[0,1,2,0,0,2,0,1,2,0,0,1,0,0,0,1,0,0,0,0,3,4,4,0,0,0,0,0,0],"split_type":[0,0,0,0,0,0,0,0,0,0,0,0,0,0,0,0,0,0,0,0,0,0,0,0,0,0,0,0,0],"sum_hessian":[1.0132976E2,9.3255325E1,8.07443E0,6.535155E1,2.790378E1,4.3087015E0,3.7657292E0,5.0859066E1,1.4492485E1,2.6267054E1,1.6367254E0,2.9294791E0,1.3792224E0,3.204674E1,1.8812325E1,1.2583204E1,1.9092805E0,1.7560364E0,1.1734427E0,2.5424177E1,6.622564E0,1.0194153E1,2.389052E0,2.39197E0,4.230594E0,4.0523963E0,6.141756E0,1.1301959E0,1.2588559E0],"tree_param":{"num_deleted":"0","num_feature":"8","num_nodes":"29","size_leaf_vector":"1"}},{"base_weights":[2.3238608E-1,3.2272542E-1,-3.735302E-2,3.5928458E-1,1.3873215E-1,-5.799833E-2,1.4977571E-1,3.779441E-1,-5.6785874E-2,2.56102E-1,-3.2893845E-1,-2.0833155E-2,-5.108923E-1,5.776836E-1,3.583592E-1,1.4794764E-1,-2.0478518E-1,3.7027028E-1,-3.3973176E-2,-4.5205876E-1,4.0097546E-2,-3.0404176E-3,-1.755711E-1,-1.949095E-2,-1.7872806E-1,4.519681E-2,1.8538782E-1,4.161209E-1,2.673425E-1,1.8139258E-1,-1.4889349E-1,4.6455568E-1,-3.0553686E-2,2.067181E-1,-3.2570112E-1,-1.937175E-2,-1.7710209E-1,-4.3275185E-2,3.3081603E-1,1.3739386E-1,3.51188E-2,9.430351E-2,-4.9561664E-2,1.5560664E-1,-1.0189071E-1,3.3838138E-2,1.498128E-1,7.102784E-2,-1.7806676E-1,-9.963532E-2,1.20858125E-1,3.9678786E-4,-1.3315661E-1,-5.015196E-3,-2.0168734E-1,1.365416E-1,2.00982E-2],"categories":[],"categories_nodes":[],"categories_segments":[],"categories_sizes":[],"default_left":[0,0,0,0,0,0,0,0,0,0,0,0,0,0,0,0,0,0,0,0,0,0,0,0,0,0,0,0,0,0,0,0,0,0,0,0,0,0,0,0,0,0,0,0,0,0,0,0,0,0,0,0,0,0,0,0,0],"id":31,"left_children":[1,3,5,7,9,11,-1,13,15,17,19,21,23,25,27,-1,29,31,33,35,-1,37,-1,-1,-1,-1,-1,39,41,43,-1,45,47,49,51,-1,-1,53,55,-1,-1,-1,-1,-1,-1,-1,-1,-1,-1,-1,-1,-1,-1,-1,-1,-1,-1],"loss_changes":[7.5296383E0,1.5053978E0,8.9634454E-1,1.5140457E0,2.2773423E0,1.2734742E0,0E0,5.1327705E-1,8.43383E-1,1.0889227E0,5.4187906E-1,7.1672183E-1,1.7864382E-1,1.6158772E-1,7.841854E-1,0E0,9.787049E-1,8.987448E-1,7.761626E-1,3.3184195E-1,0E0,9.595195E-1,0E0,0E0,0E0,0E0,0E0,1.2282429E0,1.4531908E0,9.0161383E-1,0E0,1.7652035E-1,9.5254874E-1,7.830502E-1,1.9192547E-1,0E0,0E0,1.0525957E0,2.215299E-1,0E0,0E0,0E0,0E0,0E0,0E0,0E0,0E0,0E0,0E0,0E0,0E0,0E0,0E0,0E0,0E0,0E0,0E0],"parents":[2147483647,0,0,1,1,2,2,3,3,4,4,5,5,7,7,8,8,9,9,10,10,11,11,12,12,13,13,14,14,16,16,17,17,18,18,19,19,21,21,27,27,28,28,29,29,31,31,32,32,33,33,34,34,37,37,38,38],"right_children":[2,4,6,8,10,12,-1,14,16,18,20,22,24,26,28,-1,30,32,34,36,-1,38,-1,-1,-1,-1,-1,40,42,44,-1,46,48,50,52,-1,-1,54,56,-1,-1,-1,-1,-1,-1,-1,-1,-1,-1,-1,-1,-1,-1,-1,-1,-1,-1],"split_conditions":[2.03E2,5.96E1,5.56E1,2.478E3,1.367E3,5.28E1,1.4977571E-1,1.326E3,1.1E1,6.58E1,1.43E2,3.131E2,1E0,1.281E3,4.57E1,1.4794764E-1,3.095E2,1.71E2,1.281E3,6.11E1,4.0097546E-2,3.028E2,-1.755711E-1,-1.949095E-2,-1.7872806E-1,4.519681E-2,1.8538782E-1,1.8E2,3.029E2,1.12E2,-1.4889349E-1,2.1E1,3.009E2,3.09E2,3.101E2,-1.937175E-2,-1.7710209E-1,3.121E2,3.034E2,1.3739386E-1,3.51188E-2,9.430351E-2,-4.9561664E-2,1.5560664E-1,-1.0189071E-1,3.3838138E-2,1.498128E-1,7.102784E-2,-1.7806676E-1,-9.963532E-2,1.20858125E-1,3.9678786E-4,-1.3315661E-1,-5.015196E-3,-2.0168734E-1,1.365416E-1,2.00982E-2],"split_indices":[4,3,3,2,2,3,0,2,4,3,4,1,6,2,3,0,1,4,2,3,0,0,0,0,0,0,0,4,0,4,0,4,0,1,1,0,0,1,0,0,0,0,0,0,0,0,0,0,0,0,0,0,0,0,0,0,0],"split_type":[0,0,0,0,0,0,0,0,0,0,0,0,0,0,0,0,0,0,0,0,0,0,0,0,0,0,0,0,0,0,0,0,0,0,0,0,0,0,0,0,0,0,0,0,0,0,0,0,0,0,0,0,0,0,0,0,0],"sum_hessian":[3.075017E2,2.3020609E2,7.7295616E1,1.9125194E2,3.895415E1,7.52908E1,2.0048156E0,1.8313069E2,8.121247E0,3.1500866E1,7.4532866E0,7.0547554E1,4.7432413E0,1.3808323E1,1.6932237E2,1.2275765E0,6.893671E0,2.2405865E1,9.095001E0,5.9045653E0,1.5487214E0,6.936619E1,1.1813707E0,1.040687E0,3.7025545E0,1.5986896E0,1.2209633E1,1.01399536E2,6.792284E1,3.1279447E0,3.7657263E0,1.8010315E1,4.39555E0,5.143082E0,3.951919E0,1.9387761E0,3.965789E0,6.2682384E1,6.6838007E0,8.8483284E1,1.2916245E1,6.151196E1,6.41088E0,1.9014803E0,1.2264643E0,2.0040736E0,1.600624E1,3.3733532E0,1.0221964E0,1.1875191E0,3.955563E0,1.311313E0,2.6406062E0,6.1128056E1,1.5543287E0,4.050081E0,2.6337197E0],"tree_param":{"num_deleted":"0","num_feature":"8","num_nodes":"57","size_leaf_vector":"1"}},{"base_weights":[-2.9759982E-1,-4.732065E-1,8.539799E-2,-5.2274454E-1,-3.649389E-2,-1.3366447E-1,3.1286052E-1,-5.9766567E-1,-4.3920216E-1,-1.0070989E-1,8.91509E-2,4.738228E-1,-4.6355554E-1,-1.3839868E-1,-2.1962476E-1,-5.071279E-1,4.830716E-2,3.169195E-1,2.3812503E-1,-2.8189155E-3,-1.9669114E-1,-5.458301E-1,-2.601655E-1,-8.5570015E-2,9.98945E-2,-1.09061666E-1,4.922294E-1,-1.4116515E-1,-2.661143E-1,-1.4981355E-1,9.114352E-2,1.6592652E-1,1.334622E-2],"categories":[],"categories_nodes":[],"categories_segments":[],"categories_sizes":[],"default_left":[0,0,0,0,0,0,0,0,0,0,0,0,0,0,0,0,0,0,0,0,0,0,0,0,0,0,0,0,0,0,0,0,0],"id":32,"left_children":[1,3,5,7,9,-1,11,13,15,-1,-1,17,19,-1,-1,21,23,25,-1,-1,-1,27,29,-1,-1,-1,31,-1,-1,-1,-1,-1,-1],"loss_changes":[4.7338977E0,1.0193357E0,2.8911486E0,6.8597794E-3,6.952808E-1,0E0,2.2865567E0,2.725029E-2,8.231559E-1,0E0,0E0,4.609177E-1,2.8568095E-1,0E0,0E0,6.1154366E-2,4.6172386E-1,1.5135255E0,0E0,0E0,0E0,3.1220913E-2,7.980027E-1,0E0,0E0,0E0,2.2937131E-1,0E0,0E0,0E0,0E0,0E0,0E0],"parents":[2147483647,0,0,1,1,2,2,3,3,4,4,6,6,7,7,8,8,11,11,12,12,15,15,16,16,17,17,21,21,22,22,26,26],"right_children":[2,4,6,8,10,-1,12,14,16,-1,-1,18,20,-1,-1,22,24,26,-1,-1,-1,28,30,-1,-1,-1,32,-1,-1,-1,-1,-1,-1],"split_conditions":[2.07E2,6.05E1,4.63E1,1E0,1.79E2,-1.3366447E-1,1E0,5.58E1,1.95E2,-1.0070989E-1,8.91509E-2,2.24E2,1.363E3,-1.3839868E-1,-2.1962476E-1,5.63E1,5.45E1,4.98E1,2.3812503E-1,-2.8189155E-3,-1.9669114E-1,5.45E1,1.89E2,-8.5570015E-2,9.98945E-2,-1.09061666E-1,3.028E2,-1.4116515E-1,-2.661143E-1,-1.4981355E-1,9.114352E-2,1.6592652E-1,1.334622E-2],"split_indices":[4,3,3,6,4,0,7,3,4,0,0,4,2,0,0,3,3,3,0,0,0,3,4,0,0,0,0,0,0,0,0,0,0],"split_type":[0,0,0,0,0,0,0,0,0,0,0,0,0,0,0,0,0,0,0,0,0,0,0,0,0,0,0,0,0,0,0,0,0],"sum_hessian":[6.8784386E1,4.699937E1,2.1785013E1,4.203426E1,4.9651103E0,6.2462206E0,1.5538792E1,1.8916142E1,2.3118118E1,2.6145055E0,2.3506045E0,1.319335E1,2.3454413E0,1.1591328E1,7.324815E0,2.0255617E1,2.8625016E0,1.0187601E1,3.0057495E0,1.0089025E0,1.3365388E0,1.6465145E1,3.790472E0,1.3172153E0,1.5452864E0,1.8670454E0,8.320556E0,1.5438197E1,1.0269479E0,2.7419891E0,1.0484829E0,7.117792E0,1.2027633E0],"tree_param":{"num_deleted":"0","num_feature":"8","num_nodes":"33","size_leaf_vector":"1"}},{"base_weights":[-2.3024082E-1,-2.9822332E-1,2.690152E-1,8.198916E-2,-3.5691476E-1,3.8232505E-2,1.672932E-1,-1.3026607E-1,1.9774862E-1,-4.4026533E-1,-1.8475044E-1,-1.3107982E-1,1.2065898E-1,1.4658825E-1,6.863873E-3,5.7793617E-2,-4.6033922E-1,-1.7036493E-1,3.7934247E-1,2.658526E-1,-1.4052647E-1,-1.1359545E-1,2.792333E-1,-2.5384602E-1,-1.4719912E-1,-4.4395663E-2,4.6635932E-1,2.1357246E-2,1.0171882E-1,1.3420177E-1,-3.0156974E-2,-1.5061469E-2,-1.325334E-1,2.2366895E-1,7.051053E-2],"categories":[],"categories_nodes":[],"categories_segments":[],"categories_sizes":[],"default_left":[0,0,0,0,0,0,0,0,0,0,0,0,0,0,0,0,0,0,0,0,0,0,0,0,0,0,0,0,0,0,0,0,0,0,0],"id":33,"left_children":[1,3,5,7,9,11,-1,-1,13,15,17,19,-1,-1,21,-1,23,-1,25,27,-1,-1,29,31,-1,-1,33,-1,-1,-1,-1,-1,-1,-1,-1],"loss_changes":[2.9749389E0,1.7149587E0,6.9456244E-1,7.3808265E-1,8.603859E-1,4.869017E-1,0E0,0E0,5.298165E-1,6.412859E-1,5.214442E0,8.694182E-1,0E0,0E0,8.210113E-1,0E0,1.4127922E-1,0E0,5.258285E-1,2.1375552E-2,0E0,0E0,3.3654425E-1,2.651568E-1,0E0,0E0,3.922317E-1,0E0,0E0,0E0,0E0,0E0,0E0,0E0,0E0],"parents":[2147483647,0,0,1,1,2,2,3,3,4,4,5,5,8,8,9,9,10,10,11,11,14,14,16,16,18,18,19,19,22,22,23,23,26,26],"right_children":[2,4,6,8,10,12,-1,-1,14,16,18,20,-1,-1,22,-1,24,-1,26,28,-1,-1,30,32,-1,-1,34,-1,-1,-1,-1,-1,-1,-1,-1],"split_conditions":[6.58E1,1.37E1,1.289E3,1.1E1,5.83E1,3.121E2,1.672932E-1,-1.3026607E-1,8.2E1,3.072E2,1.367E3,3E2,1.2065898E-1,1.4658825E-1,1.12E2,5.7793617E-2,1.57E1,-1.7036493E-1,3.082E2,2.981E2,-1.4052647E-1,-1.1359545E-1,3.103E2,3.102E2,-1.4719912E-1,-4.4395663E-2,3.088E2,2.1357246E-2,1.0171882E-1,1.3420177E-1,-3.0156974E-2,-1.5061469E-2,-1.325334E-1,2.2366895E-1,7.051053E-2],"split_indices":[3,3,2,4,3,1,0,0,4,1,2,0,0,0,4,0,3,0,1,0,0,0,1,1,0,0,1,0,0,0,0,0,0,0,0],"split_type":[0,0,0,0,0,0,0,0,0,0,0,0,0,0,0,0,0,0,0,0,0,0,0,0,0,0,0,0,0,0,0,0,0,0,0],"sum_hessian":[8.428743E1,7.4540146E1,9.747287E0,9.914634E0,6.462551E1,6.0457063E0,3.7015808E0,1.312172E0,8.602462E0,4.2495007E1,2.2130505E1,4.5629325E0,1.4827738E0,2.7904472E0,5.8120146E0,1.0420909E0,4.1452915E1,1.3175184E1,8.95532E0,2.193672E0,2.3692605E0,2.2446682E0,3.5673463E0,6.507999E0,3.4944916E1,1.1692051E0,7.7861156E0,1.1386037E0,1.0550684E0,2.3493862E0,1.2179601E0,3.7316093E0,2.7763894E0,2.5206807E0,5.2654347E0],"tree_param":{"num_deleted":"0","num_feature":"8","num_nodes":"35","size_leaf_vector":"1"}},{"base_weights":[2.2063632E-1,8.1739984E-2,6.483545E-1,2.3202133E-1,-1.1563836E-1,3.8197085E-1,-4.0329505E-2,-1.09472595E-1,4.2304185E-1,7.391747E-2,-8.375532E-2,6.245075E-1,-9.749938E-2,8.2052994E-1,-8.3652906E-2,4.441094E-2,3.686537E-1],"categories":[],"categories_nodes":[],"categories_segments":[],"categories_sizes":[],"default_left":[0,0,0,0,0,0,0,0,0,0,0,0,0,0,0,0,0],"id":34,"left_children":[1,3,5,7,-1,-1,9,-1,11,-1,-1,13,-1,15,-1,-1,-1],"loss_changes":[1.1397015E0,1.2338232E0,2.1071548E0,1.6317514E0,0E0,0E0,2.9080462E-1,0E0,1.7519972E0,0E0,0E0,1.7233284E0,0E0,1.7920423E0,0E0,0E0,0E0],"parents":[2147483647,0,0,1,1,2,2,3,3,6,6,8,8,11,11,13,13],"right_children":[2,4,6,8,-1,-1,10,-1,12,-1,-1,14,-1,16,-1,-1,-1],"split_conditions":[3.119E2,1.603E3,3.027E2,1.399E3,-1.1563836E-1,3.8197085E-1,1.31E2,-1.09472595E-1,3.017E2,7.391747E-2,-8.375532E-2,1.9E2,-9.749938E-2,2.993E2,-8.3652906E-2,4.441094E-2,3.686537E-1],"split_indices":[1,2,0,2,0,0,4,0,0,0,0,4,0,0,0,0,0],"split_type":[0,0,0,0,0,0,0,0,0,0,0,0,0,0,0,0,0],"sum_hessian":[1.9076225E1,1.5299126E1,3.7771003E0,1.1956532E1,3.342594E0,1.5352687E0,2.2418315E0,2.6779025E0,9.278628E0,1.00449E0,1.2373415E0,7.439995E0,1.838634E0,6.1887493E0,1.2512454E0,2.8527846E0,3.335965E0],"tree_param":{"num_deleted":"0","num_feature":"8","num_nodes":"17","size_leaf_vector":"1"}},{"base_weights":[2.4916911E-2,-1.4151081E-1,2.154348E-1,2.4172975E-1,-9.996345E-2,-9.37186E-2,2.6902246E-1,2.624745E-1,2.1330449E-1,3.149682E-1,-1.5476348E-1,2.2527061E-1,5.2342977E-2,-1.3180462E-1,1.1080802E-1],"categories":[],"categories_nodes":[],"categories_segments":[],"categories_sizes":[],"default_left":[0,0,0,0,0,0,0,0,0,0,0,0,0,0,0],"id":35,"left_children":[1,-1,3,5,-1,-1,7,-1,9,11,13,-1,-1,-1,-1],"loss_changes":[5.895563E0,0E0,7.289481E-1,7.414448E-1,0E0,0E0,1.2300973E0,0E0,1.5362997E0,1.7969425E0,1.54563E0,0E0,0E0,0E0,0E0],"parents":[2147483647,0,0,2,2,3,3,6,6,8,8,9,9,10,10],"right_children":[2,-1,4,6,-1,-1,8,-1,10,12,14,-1,-1,-1,-1],"split_conditions":[1.98E2,-1.4151081E-1,2.36E2,1.374E3,-9.996345E-2,-9.37186E-2,1.4E3,2.624745E-1,4.14E1,3.09E2,3.017E2,2.2527061E-1,5.2342977E-2,-1.3180462E-1,1.1080802E-1],"split_indices":[4,0,4,2,0,0,2,0,3,1,0,0,0,0,0],"split_type":[0,0,0,0,0,0,0,0,0,0,0,0,0,0,0],"sum_hessian":[6.0237076E1,1.6292309E1,4.3944767E1,4.2468777E1,1.4759914E0,1.5031976E0,4.096558E1,2.2117581E0,3.8753822E1,3.04794E1,8.27442E0,6.369757E0,2.4109644E1,5.4674726E0,2.8069472E0],"tree_param":{"num_deleted":"0","num_feature":"8","num_nodes":"15","size_leaf_vector":"1"}},{"base_weights":[-3.2170305E-1,-1.9646692E-1,-1.4405096E-1,-2.7703366E-1,4.2688158E-1,-3.8033627E-2,-5.4643047E-1,5.4859245E-1,2.7540298E-2,-1.9202837E-1,1.7162237E-1,-1.7535454E-1,-2.1481115E-1,2.1221848E-1,2.449727E-1,1.5870866E-1,-4.0900517E-1,-1.4199336E-1,7.49301E-2,7.570188E-2,2.0691074E-2,-1.1388376E-1,1.563107E-1,-1.8350282E-1,1.1263747E-2],"categories":[],"categories_nodes":[],"categories_segments":[],"categories_sizes":[],"default_left":[0,0,0,0,0,0,0,0,0,0,0,0,0,0,0,0,0,0,0,0,0,0,0,0,0],"id":36,"left_children":[1,3,-1,5,7,9,11,13,-1,15,-1,-1,17,19,-1,21,23,-1,-1,-1,-1,-1,-1,-1,-1],"loss_changes":[1.6371193E0,2.6506608E0,0E0,2.8933213E0,2.0106387E-1,2.4641263E0,1.422143E-1,2.1624553E-1,0E0,1.644517E0,0E0,0E0,5.703876E-1,1.3742298E-3,0E0,1.8856301E0,1.2088275E0,0E0,0E0,0E0,0E0,0E0,0E0,0E0,0E0],"parents":[2147483647,0,0,1,1,3,3,4,4,5,5,6,6,7,7,9,9,12,12,13,13,15,15,16,16],"right_children":[2,4,-1,6,8,10,12,14,-1,16,-1,-1,18,20,-1,22,24,-1,-1,-1,-1,-1,-1,-1,-1],"split_conditions":[1.377E3,3.027E2,-1.4405096E-1,3.11E2,1.13E2,3.023E2,3.026E2,1.362E3,2.7540298E-2,3.105E2,1.7162237E-1,-1.7535454E-1,9.2E1,5.2E1,2.449727E-1,3.008E2,3.021E2,-1.4199336E-1,7.49301E-2,7.570188E-2,2.0691074E-2,-1.1388376E-1,1.563107E-1,-1.8350282E-1,1.1263747E-2],"split_indices":[2,0,0,1,4,0,0,2,0,1,0,0,4,4,0,0,0,0,0,0,0,0,0,0,0],"split_type":[0,0,0,0,0,0,0,0,0,0,0,0,0,0,0,0,0,0,0,0,0,0,0,0,0],"sum_hessian":[8.6245674E1,4.942497E1,3.6820705E1,4.426001E1,5.1649594E0,2.4057852E1,2.0202158E1,3.321353E0,1.8436065E0,1.9756464E1,4.3013883E0,1.7437006E1,2.765152E0,2.2673154E0,1.0540375E0,7.6534376E0,1.2103026E1,1.7645341E0,1.0006177E0,1.1763015E0,1.0910139E0,3.059754E0,4.5936837E0,8.07042E0,4.032606E0],"tree_param":{"num_deleted":"0","num_feature":"8","num_nodes":"25","size_leaf_vector":"1"}},{"base_weights":[1.9489294E-1,2.7981618E-1,-2.4049042E-2,3.1734267E-1,1.0204988E-1,2.3771705E-2,-2.2654748E-1,3.357131E-1,-4.6694774E-2,2.0276219E-1,-2.691272E-1,-4.397588E-2,2.1899977E-1,-4.4309672E-2,-1.8913895E-1,3.9051068E-1,2.70533E-1,-2.0808508E-1,1.0032833E-1,2.9866946E-1,-3.2488145E-2,-3.8093463E-1,3.7721325E-2,-2.4747922E-1,8.474631E-2,-2.8705937E-1,3.4980366E-1,1.3266209E-1,-3.9920303E-1,4.417105E-1,6.5278426E-2,1.8224089E-1,5.6066597E-1,8.438069E-2,-1.277997E-1,3.9176175E-1,-6.638629E-2,1.2086145E-1,-1.1428959E-1,-9.925249E-3,-1.5643506E-1,-7.503097E-1,-9.861385E-2,3.065457E-1,-5.7742428E-2,-1.9334434E-1,1.0340812E-1,1.3988651E-1,7.3943555E-2,-5.682376E-1,8.93948E-2,-5.6495477E-2,1.3620694E-1,-1.8367319E-1,5.8744777E-2,6.989347E-2,-8.890055E-2,7.543057E-2,1.8042956E-1,-1.1262592E-1,1.9277391E-1,1.5900949E-1,6.814038E-2,6.1006505E-2,-1.19886085E-1,8.899938E-2,-1.0831264E-1,-2.6658466E-1,-5.5048306E-2,3.3853456E-2,-2.0373653E-1,-4.536076E-3,1.1676918E-1,9.217862E-2,-7.017116E-2,-1.5036766E-1,1.2717295E-1,-2.3613496E-1,-3.639538E-2],"categories":[],"categories_nodes":[],"categories_segments":[],"categories_sizes":[],"default_left":[0,0,0,0,0,0,0,0,0,0,0,0,0,0,0,0,0,0,0,0,0,0,0,0,0,0,0,0,0,0,0,0,0,0,0,0,0,0,0,0,0,0,0,0,0,0,0,0,0,0,0,0,0,0,0,0,0,0,0,0,0,0,0,0,0,0,0,0,0,0,0,0,0,0,0,0,0,0,0],"id":37,"left_children":[1,3,5,7,9,11,13,15,17,19,21,23,25,27,-1,29,31,33,-1,35,37,39,-1,41,43,45,47,-1,49,51,53,55,57,59,-1,61,63,65,-1,-1,-1,67,69,71,73,-1,-1,-1,75,77,-1,-1,-1,-1,-1,-1,-1,-1,-1,-1,-1,-1,-1,-1,-1,-1,-1,-1,-1,-1,-1,-1,-1,-1,-1,-1,-1,-1,-1],"loss_changes":[5.108918E0,1.287116E0,7.569532E-1,1.1047211E0,1.3984976E0,8.5201305E-1,1.0704484E0,4.4849014E-1,6.04776E-1,6.6059244E-1,4.056139E-1,1.2813703E0,1.1975926E0,2.1376593E0,0E0,1.3371363E0,1.79639E0,4.647966E-1,0E0,7.2579765E-1,5.407172E-1,3.035218E-1,0E0,1.3405658E0,9.726979E-1,1.1148753E0,4.0322685E-1,0E0,1.0052316E0,6.339445E-1,1.2104458E0,1.4847715E0,6.069374E-2,1.1928514E0,0E0,2.5639844E-1,5.342237E-1,7.1601313E-1,0E0,0E0,0E0,1.63486E-1,2.0078087E0,3.244617E-1,1.30898E0,0E0,0E0,0E0,1.2657435E0,4.9661338E-1,0E0,0E0,0E0,0E0,0E0,0E0,0E0,0E0,0E0,0E0,0E0,0E0,0E0,0E0,0E0,0E0,0E0,0E0,0E0,0E0,0E0,0E0,0E0,0E0,0E0,0E0,0E0,0E0,0E0],"parents":[2147483647,0,0,1,1,2,2,3,3,4,4,5,5,6,6,7,7,8,8,9,9,10,10,11,11,12,12,13,13,15,15,16,16,17,17,19,19,20,20,21,21,23,23,24,24,25,25,26,26,28,28,29,29,30,30,31,31,32,32,33,33,35,35,36,36,37,37,41,41,42,42,43,43,44,44,48,48,49,49],"right_children":[2,4,6,8,10,12,14,16,18,20,22,24,26,28,-1,30,32,34,-1,36,38,40,-1,42,44,46,48,-1,50,52,54,56,58,60,-1,62,64,66,-1,-1,-1,68,70,72,74,-1,-1,-1,76,78,-1,-1,-1,-1,-1,-1,-1,-1,-1,-1,-1,-1,-1,-1,-1,-1,-1,-1,-1,-1,-1,-1,-1,-1,-1,-1,-1,-1,-1],"split_conditions":[2.03E2,5.96E1,2.25E2,2.478E3,1.367E3,1.568E3,4.49E1,4.55E1,1E0,6.58E1,1.43E2,4.14E1,2.01E1,1.573E3,-1.8913895E-1,1.8E2,1.77E2,3.102E2,1.0032833E-1,1.71E2,1.289E3,6.11E1,3.7721325E-2,3.086E2,4.63E1,2.478E3,2.17E2,1.3266209E-1,2.36E2,2.96E2,1.82E2,1E0,4.92E1,2.99E2,-1.277997E-1,3.008E2,3.108E2,3.02E2,-1.1428959E-1,-9.925249E-3,-1.5643506E-1,3.78E1,3.118E2,1.4E3,3.095E2,-1.9334434E-1,1.0340812E-1,1.3988651E-1,2.2E2,1.742E3,8.93948E-2,-5.6495477E-2,1.3620694E-1,-1.8367319E-1,5.8744777E-2,6.989347E-2,-8.890055E-2,7.543057E-2,1.8042956E-1,-1.1262592E-1,1.9277391E-1,1.5900949E-1,6.814038E-2,6.1006505E-2,-1.19886085E-1,8.899938E-2,-1.0831264E-1,-2.6658466E-1,-5.5048306E-2,3.3853456E-2,-2.0373653E-1,-4.536076E-3,1.1676918E-1,9.217862E-2,-7.017116E-2,-1.5036766E-1,1.2717295E-1,-2.3613496E-1,-3.639538E-2],"split_indices":[4,3,4,2,2,2,3,3,5,3,4,3,3,2,0,4,4,1,0,4,2,3,0,1,3,2,4,0,4,0,4,5,3,0,0,0,1,0,0,0,0,3,1,2,1,0,0,0,4,2,0,0,0,0,0,0,0,0,0,0,0,0,0,0,0,0,0,0,0,0,0,0,0,0,0,0,0,0,0],"split_type":[0,0,0,0,0,0,0,0,0,0,0,0,0,0,0,0,0,0,0,0,0,0,0,0,0,0,0,0,0,0,0,0,0,0,0,0,0,0,0,0,0,0,0,0,0,0,0,0,0,0,0,0,0,0,0,0,0,0,0,0,0,0,0,0,0,0,0,0,0,0,0,0,0,0,0,0,0,0,0],"sum_hessian":[2.734106E2,1.9679839E2,7.661222E1,1.6184724E2,3.4951138E1,6.2690285E1,1.3921932E1,1.5414636E2,7.70088E0,2.7848637E1,7.102501E0,4.711522E1,1.5575067E1,1.035823E1,3.5637033E0,8.1031265E1,7.31151E1,5.728927E0,1.9719529E0,1.9591825E1,8.256812E0,5.562685E0,1.539816E0,1.7897532E1,2.9217688E1,2.9535766E0,1.262149E1,4.2651663E0,6.0930634E0,6.97005E1,1.133077E1,5.730454E1,1.5810557E1,2.7076828E0,3.0212443E0,1.555262E1,4.039205E0,6.187247E0,2.069565E0,1.9559989E0,3.606686E0,3.1654005E0,1.4732132E1,1.0977942E1,1.8239744E1,1.8734838E0,1.0800928E0,8.388889E0,4.2326E0,5.052923E0,1.0401397E0,1.0620319E0,6.8638466E1,1.2342944E0,1.0096475E1,5.2275604E1,5.0289345E0,2.6764038E0,1.3134153E1,1.6642497E0,1.0434332E0,7.2466187E0,8.306002E0,2.4476614E0,1.5915436E0,4.815057E0,1.37219E0,2.0881479E0,1.0772527E0,1.1389093E1,3.3430378E0,2.4119513E0,8.565991E0,5.6951833E0,1.2544561E1,1.4376363E0,2.794964E0,2.880832E0,2.1720915E0],"tree_param":{"num_deleted":"0","num_feature":"8","num_nodes":"79","size_leaf_vector":"1"}},{"base_weights":[-2.7541625E-1,-4.4605735E-1,5.874266E-2,-1.4925984E-1,-2.8052457E-2,-1.3049491E-1,2.5494254E-1,-9.41228E-2,8.411539E-2,3.987885E-1,-4.392258E-1,2.5309715E-1,2.0976666E-1,-2.5550495E-3,-1.9048658E-1,-1.0390633E-1,4.0119538E-1,1.5120733E-1,4.349594E-2],"categories":[],"categories_nodes":[],"categories_segments":[],"categories_sizes":[],"default_left":[0,0,0,0,0,0,0,0,0,0,0,0,0,0,0,0,0,0,0],"id":38,"left_children":[1,3,5,-1,7,-1,9,-1,-1,11,13,15,-1,-1,-1,-1,17,-1,-1],"loss_changes":[3.492237E0,8.5433483E-1,2.1869133E0,0E0,5.712293E-1,0E0,1.7695272E0,0E0,0E0,4.2489505E-1,2.6576298E-1,1.1001778E0,0E0,0E0,0E0,0E0,1.6787064E-1,0E0,0E0],"parents":[2147483647,0,0,1,1,2,2,4,4,6,6,9,9,10,10,11,11,16,16],"right_children":[2,4,6,-1,8,-1,10,-1,-1,12,14,16,-1,-1,-1,-1,18,-1,-1],"split_conditions":[2.07E2,6.05E1,4.63E1,-1.4925984E-1,1.79E2,-1.3049491E-1,1E0,-9.41228E-2,8.411539E-2,2.24E2,1.363E3,4.98E1,2.0976666E-1,-2.5550495E-3,-1.9048658E-1,-1.0390633E-1,1.414E3,1.5120733E-1,4.349594E-2],"split_indices":[4,3,3,0,4,0,7,0,0,4,2,3,0,0,0,0,2,0,0],"split_type":[0,0,0,0,0,0,0,0,0,0,0,0,0,0,0,0,0,0,0],"sum_hessian":[5.9784977E1,3.935377E1,2.0431204E1,3.486949E1,4.484279E0,5.4640923E0,1.4967113E1,2.3190527E0,2.1652262E0,1.2750469E1,2.2166433E0,9.8272915E0,2.923177E0,1.0186294E0,1.1980139E0,1.6816918E0,8.1456E0,5.1224675E0,3.0231328E0],"tree_param":{"num_deleted":"0","num_feature":"8","num_nodes":"19","size_leaf_vector":"1"}},{"base_weights":[-2.056895E-1,-2.7120623E-1,2.4785034E-1,3.641494E-5,-3.5755664E-1,4.3328185E-2,1.5087426E-1,1.6416913E-1,-7.038964E-2,-1.4600605E-1,-1.58058E-1,-1.2402362E-1,1.149363E-1,-2.0268351E-1,2.890945E-1,-1.6037111E-1,3.129977E-1,7.1418144E-2,-1.3056897E-1,-1.2226061E-2,-5.019601E-1,1.6722159E-1,-1.9237872E-2,9.705798E-2,5.9312403E-1,-1.12274446E-1,8.100136E-2,-2.4966006E-1,4.4058368E-2,-1.205985E-1,1.2588412E-1,4.5622952E-2,2.631493E-1],"categories":[],"categories_nodes":[],"categories_segments":[],"categories_sizes":[],"default_left":[0,0,0,0,0,0,0,0,0,0,0,0,0,0,0,0,0,0,0,0,0,0,0,0,0,0,0,0,0,0,0,0,0],"id":39,"left_children":[1,3,5,7,9,11,-1,-1,13,-1,15,17,-1,19,21,-1,23,-1,-1,25,27,-1,-1,29,31,-1,-1,-1,-1,-1,-1,-1,-1],"loss_changes":[2.2402723E0,1.5078659E0,4.870032E-1,6.761347E-1,1.1810565E0,4.175494E-1,0E0,0E0,7.9787767E-1,0E0,3.8331213E0,6.800252E-1,0E0,6.7506844E-1,4.7112465E-1,0E0,5.359882E-1,0E0,0E0,9.519797E-1,1.112733E0,0E0,0E0,1.2531005E0,3.7719095E-1,0E0,0E0,0E0,0E0,0E0,0E0,0E0,0E0],"parents":[2147483647,0,0,1,1,2,2,3,3,4,4,5,5,8,8,10,10,11,11,13,13,14,14,16,16,19,19,20,20,23,23,24,24],"right_children":[2,4,6,8,10,12,-1,-1,14,-1,16,18,-1,20,22,-1,24,-1,-1,26,28,-1,-1,30,32,-1,-1,-1,-1,-1,-1,-1,-1],"split_conditions":[6.58E1,1.57E1,1.289E3,2.97E2,5.83E1,3.121E2,1.5087426E-1,1.6416913E-1,3.018E2,-1.4600605E-1,1.367E3,3E2,1.149363E-1,3.006E2,3.117E2,-1.6037111E-1,1.418E3,7.1418144E-2,-1.3056897E-1,1E0,3.107E2,1.6722159E-1,-1.9237872E-2,6.11E1,1.35E2,-1.12274446E-1,8.100136E-2,-2.4966006E-1,4.4058368E-2,-1.205985E-1,1.2588412E-1,4.5622952E-2,2.631493E-1],"split_indices":[3,3,2,0,3,1,0,0,0,0,2,0,0,0,1,0,2,0,0,6,1,0,0,3,4,0,0,0,0,0,0,0,0],"split_type":[0,0,0,0,0,0,0,0,0,0,0,0,0,0,0,0,0,0,0,0,0,0,0,0,0,0,0,0,0,0,0,0,0],"sum_hessian":[7.2131195E1,6.3377876E1,8.753318E0,1.5545658E1,4.783222E1,5.507232E0,3.2460854E0,1.0006394E0,1.4545018E1,2.8163307E1,1.9668911E1,4.115369E0,1.3918635E0,1.0951088E1,3.5939307E0,1.0856519E1,8.812392E0,2.0108328E0,2.104536E0,7.328277E0,3.6228108E0,1.7139376E0,1.8799931E0,5.7366705E0,3.0757217E0,3.067502E0,4.260775E0,2.213526E0,1.4092847E0,2.1554744E0,3.581196E0,1.8063269E0,1.269395E0],"tree_param":{"num_deleted":"0","num_feature":"8","num_nodes":"33","size_leaf_vector":"1"}},{"base_weights":[2.3090835E-1,2.7688254E-2,4.9764928E-1,-3.0035096E-1,4.4668218E-1,7.7592057E-1,-9.805637E-2,6.9929495E-2,-1.2689066E-1,-1.18737526E-1,3.1909427E-1,2.2174384E-1,1.0469129E0,6.428922E-2,-9.720411E-2,-8.832431E-2,2.1897449E-1,3.8924336E-1,5.9930626E-2],"categories":[],"categories_nodes":[],"categories_segments":[],"categories_sizes":[],"default_left":[0,0,0,0,0,0,0,0,0,0,0,0,0,0,0,0,0,0,0],"id":40,"left_children":[1,3,5,7,9,11,-1,-1,-1,13,-1,15,17,-1,-1,-1,-1,-1,-1],"loss_changes":[1.0589107E0,1.8234636E0,2.203383E0,5.886136E-1,2.1492953E0,7.665515E-1,0E0,0E0,0E0,3.3780265E-1,0E0,1.1205227E0,6.317711E-1,0E0,0E0,0E0,0E0,0E0,0E0],"parents":[2147483647,0,0,1,1,2,2,3,3,4,4,5,5,9,9,11,11,12,12],"right_children":[2,4,6,8,10,12,-1,-1,-1,14,-1,16,18,-1,-1,-1,-1,-1,-1],"split_conditions":[4.57E1,1.6E2,1.73E2,1.7E1,3.112E2,1.399E3,-9.805637E-2,6.9929495E-2,-1.2689066E-1,3.096E2,3.1909427E-1,3.118E2,3.008E2,6.428922E-2,-9.720411E-2,-8.832431E-2,2.1897449E-1,3.8924336E-1,5.9930626E-2],"split_indices":[3,4,4,4,1,2,0,0,0,1,0,1,0,0,0,0,0,0,0],"split_type":[0,0,0,0,0,0,0,0,0,0,0,0,0,0,0,0,0,0,0],"sum_hessian":[1.8788727E1,1.1290621E1,7.498106E0,6.491472E0,4.799149E0,5.65011E0,1.8479966E0,1.0448475E0,5.4466243E0,2.9255583E0,1.8735908E0,2.452676E0,3.1974337E0,1.0988555E0,1.8267027E0,1.4254555E0,1.0272206E0,2.0573332E0,1.1401005E0],"tree_param":{"num_deleted":"0","num_feature":"8","num_nodes":"19","size_leaf_vector":"1"}},{"base_weights":[3.003159E-2,-1.3919756E-1,1.7260884E-1,5.1863045E-1,1.2610175E-1,9.6532416E-1,-9.380444E-2,-3.472186E-2,2.625908E-1,3.609934E-1,6.135812E-2,1.3345785E-1,-1.3030939E-1,3.122585E-1,-9.523162E-2,-2.5960281E-1,3.165779E-1,-8.809544E-2,3.630532E-1,-1.267247E-1,5.3795718E-2,1.5572456E-1,-4.7950212E-2,8.4294386E-2,2.5377774E-1],"categories":[],"categories_nodes":[],"categories_segments":[],"categories_sizes":[],"default_left":[0,0,0,0,0,0,0,0,0,0,0,0,0,0,0,0,0,0,0,0,0,0,0,0,0],"id":41,"left_children":[1,-1,3,5,7,9,-1,11,13,-1,-1,15,-1,17,-1,19,21,-1,23,-1,-1,-1,-1,-1,-1],"loss_changes":[4.303263E0,0E0,6.9509125E-1,2.2617311E0,9.5255214E-1,4.197898E-1,0E0,1.4434861E0,7.7225614E-1,0E0,0E0,1.1815345E0,0E0,7.845278E-1,0E0,4.6190292E-1,1.1316459E0,0E0,5.8543825E-1,0E0,0E0,0E0,0E0,0E0,0E0],"parents":[2147483647,0,0,2,2,3,3,4,4,5,5,7,7,8,8,11,11,13,13,15,15,16,16,18,18],"right_children":[2,-1,4,6,8,10,-1,12,14,-1,-1,16,-1,18,-1,20,22,-1,24,-1,-1,-1,-1,-1,-1],"split_conditions":[1.98E2,-1.3919756E-1,2.04E2,3.097E2,2.14E2,3.83E1,-9.380444E-2,1.555E3,2.36E2,3.609934E-1,6.135812E-2,1.441E3,-1.3030939E-1,2.974E2,-9.523162E-2,4.66E1,2.1E2,-8.809544E-2,4.53E1,-1.267247E-1,5.3795718E-2,1.5572456E-1,-4.7950212E-2,8.4294386E-2,2.5377774E-1],"split_indices":[4,0,4,1,4,3,0,2,4,0,0,2,0,0,0,3,4,0,3,0,0,0,0,0,0],"split_type":[0,0,0,0,0,0,0,0,0,0,0,0,0,0,0,0,0,0,0,0,0,0,0,0,0],"sum_hessian":[5.895718E1,1.2699543E1,4.6257637E1,4.2778654E0,4.197977E1,2.677788E0,1.6000773E0,1.9614187E1,2.2365583E1,1.5966806E0,1.0811073E0,1.4273568E1,5.340619E0,2.1026724E1,1.3388604E0,4.403642E0,9.869926E0,1.2565602E0,1.9770163E1,3.2395687E0,1.1640733E0,6.86312E0,3.0068064E0,1.8250153E1,1.5200104E0],"tree_param":{"num_deleted":"0","num_feature":"8","num_nodes":"25","size_leaf_vector":"1"}},{"base_weights":[-2.8242198E-1,-1.6582364E-1,-1.4491796E-1,-2.4591422E-1,4.0116978E-1,-1.1361535E-2,-5.2890986E-1,5.153263E-1,2.462268E-2,-2.5668508E-1,3.6405173E-1,-1.7134315E-1,-1.8140166E-1,2.3198973E-1,2.2603987E-1,2.289345E-1,-4.9465057E-1,3.589073E-2,1.6007513E-1,2.9860813E-2,-1.17540814E-1,9.543783E-2,6.105702E-3,-1.0886691E-1,2.4315207E-1,-4.63558E-2,-1.7167717E-1,-8.0546185E-2,1.3120247E-1],"categories":[],"categories_nodes":[],"categories_segments":[],"categories_sizes":[],"default_left":[0,0,0,0,0,0,0,0,0,0,0,0,0,0,0,0,0,0,0,0,0,0,0,0,0,0,0,0,0],"id":42,"left_children":[1,3,-1,5,7,9,11,13,-1,15,17,-1,19,21,-1,23,25,27,-1,-1,-1,-1,-1,-1,-1,-1,-1,-1,-1],"loss_changes":[1.688642E0,2.3392491E0,0E0,2.904876E0,1.9400394E-1,2.3959908E0,1.877613E-1,1.3479352E-1,0E0,1.9283329E0,5.535599E-1,0E0,2.527818E-1,5.806184E-2,0E0,2.307322E0,1.9817996E-1,6.769069E-1,0E0,0E0,0E0,0E0,0E0,0E0,0E0,0E0,0E0,0E0,0E0],"parents":[2147483647,0,0,1,1,3,3,4,4,5,5,6,6,7,7,9,9,10,10,12,12,13,13,15,15,16,16,17,17],"right_children":[2,4,-1,6,8,10,12,14,-1,16,18,-1,20,22,-1,24,26,28,-1,-1,-1,-1,-1,-1,-1,-1,-1,-1,-1],"split_conditions":[1.38E3,3.027E2,-1.4491796E-1,3.11E2,1.13E2,3.021E2,3.026E2,9E1,2.462268E-2,3.104E2,7.7E1,-1.7134315E-1,3.117E2,3.119E2,2.2603987E-1,3.008E2,3.105E2,1.358E3,1.6007513E-1,2.9860813E-2,-1.17540814E-1,9.543783E-2,6.105702E-3,-1.0886691E-1,2.4315207E-1,-4.63558E-2,-1.7167717E-1,-8.0546185E-2,1.3120247E-1],"split_indices":[2,0,0,1,4,0,0,4,0,1,4,0,1,1,0,0,1,2,0,0,0,0,0,0,0,0,0,0,0],"split_type":[0,0,0,0,0,0,0,0,0,0,0,0,0,0,0,0,0,0,0,0,0,0,0,0,0,0,0,0,0],"sum_hessian":[7.460663E1,4.834056E1,2.6266064E1,4.285357E1,5.4869914E0,2.4001104E1,1.8852467E1,3.5883026E0,1.8986886E0,1.4706814E1,9.29429E0,1.6235739E1,2.6167283E0,2.5401864E0,1.0481162E0,4.8491125E0,9.857702E0,3.578717E0,5.715572E0,1.3461739E0,1.2705544E0,1.447776E0,1.0924104E0,2.5897403E0,2.259372E0,2.387022E0,7.47068E0,2.2238288E0,1.3548882E0],"tree_param":{"num_deleted":"0","num_feature":"8","num_nodes":"29","size_leaf_vector":"1"}},{"base_weights":[1.5965106E-1,2.3061147E-1,-2.8658839E-2,2.6362485E-1,7.269496E-2,-3.9393416E-1,-6.512924E-3,2.9052836E-1,5.208169E-2,1.592185E-1,-2.6702237E-1,-2.1001695E-1,5.4552887E-2,1.6374627E-1,-8.816969E-2,3.7525973E-1,2.0949337E-1,1.332083E-1,-1.6646214E-1,-2.0259751E-2,3.1063837E-1,-4.958214E-1,6.833015E-2,4.2332423E-1,-1.4039299E-1,-1.7882312E-2,-2.7028048E-1,4.3641463E-1,1.4682493E-1,-1.7248273E-1,2.503503E-1,1.3393429E-2,1.2256387E-1,1.2264519E-1,-2.463824E-1,9.878609E-3,3.4794432E-1,4.038751E-2,-2.0839967E-1,1.1986397E-1,1.696403E-1,-3.23958E-1,2.0393097E-1,-1.1812228E-1,2.5423566E-1,-2.2697225E-1,-5.7478137E-2,-6.4925E-2,1.3674437E-1,-2.0210978E-1,7.9222634E-2,-2.5399873E-1,4.845077E-2,8.875679E-2,-3.4569185E-2,-1.1649233E-1,2.6341163E-2,-2.5678046E-2,1.2876502E-1,1.1656256E-1,9.355377E-3,-1.2134821E-1,1.2371377E-1,8.414482E-2,-1.4209862E-1,1.17004655E-1,-5.2365575E-2,5.7501357E-2,-6.313918E-2,1.3310765E-1,-5.9113326E-3,4.1748557E-2,-8.406443E-2],"categories":[],"categories_nodes":[],"categories_segments":[],"categories_sizes":[],"default_left":[0,0,0,0,0,0,0,0,0,0,0,0,0,0,0,0,0,0,0,0,0,0,0,0,0,0,0,0,0,0,0,0,0,0,0,0,0,0,0,0,0,0,0,0,0,0,0,0,0,0,0,0,0,0,0,0,0,0,0,0,0,0,0,0,0,0,0,0,0,0,0,0,0],"id":43,"left_children":[1,3,5,7,9,11,13,15,17,19,21,-1,-1,23,25,27,29,31,-1,33,35,37,-1,39,41,43,45,47,49,51,53,55,-1,57,-1,-1,59,-1,-1,61,-1,63,65,67,69,-1,71,-1,-1,-1,-1,-1,-1,-1,-1,-1,-1,-1,-1,-1,-1,-1,-1,-1,-1,-1,-1,-1,-1,-1,-1,-1,-1],"loss_changes":[3.2963624E0,9.1361713E-1,5.4969835E-1,8.2492065E-1,9.9244887E-1,8.1218493E-1,9.2346966E-1,8.1901455E-1,9.539506E-1,7.233195E-1,8.978884E-1,0E0,0E0,1.7602841E0,5.6913245E-1,8.1105995E-1,1.1213803E0,5.412158E-1,0E0,1.5902132E0,1.3743794E-1,7.27355E-1,0E0,4.443426E-1,7.4056196E-1,9.4175255E-1,1.2414098E0,7.1806335E-1,1.5956235E0,1.7731849E0,1.0791547E0,4.101429E-1,0E0,7.972163E-1,0E0,0E0,1.4946926E-1,0E0,0E0,9.423431E-1,0E0,7.976571E-1,3.726522E-1,7.586359E-1,4.9219877E-1,0E0,4.6467945E-1,0E0,0E0,0E0,0E0,0E0,0E0,0E0,0E0,0E0,0E0,0E0,0E0,0E0,0E0,0E0,0E0,0E0,0E0,0E0,0E0,0E0,0E0,0E0,0E0,0E0,0E0],"parents":[2147483647,0,0,1,1,2,2,3,3,4,4,5,5,6,6,7,7,8,8,9,9,10,10,13,13,14,14,15,15,16,16,17,17,19,19,20,20,21,21,23,23,24,24,25,25,26,26,27,27,28,28,29,29,30,30,31,31,33,33,36,36,39,39,41,41,42,42,43,43,44,44,46,46],"right_children":[2,4,6,8,10,12,14,16,18,20,22,-1,-1,24,26,28,30,32,-1,34,36,38,-1,40,42,44,46,48,50,52,54,56,-1,58,-1,-1,60,-1,-1,62,-1,64,66,68,70,-1,72,-1,-1,-1,-1,-1,-1,-1,-1,-1,-1,-1,-1,-1,-1,-1,-1,-1,-1,-1,-1,-1,-1,-1,-1,-1,-1],"split_conditions":[2.05E2,5.96E1,3.079E2,1.863E3,3.024E2,1.605E3,3.098E2,4.57E1,1.98E2,3.1E2,3.125E2,-2.1001695E-1,5.4552887E-2,2.18E2,4.66E1,1.8E2,4.68E1,1.57E1,-1.6646214E-1,3.006E2,3E2,1.27E3,6.833015E-2,2.09E2,2.998E2,4.1E1,3.004E2,3E0,1.82E2,2.987E2,3.029E2,3.081E2,1.2256387E-1,3.09E2,-2.463824E-1,9.878609E-3,1.61E2,4.038751E-2,-2.0839967E-1,1.456E3,1.696403E-1,2.974E2,4.53E1,3.004E2,4.42E1,-2.2697225E-1,3.118E2,-6.4925E-2,1.3674437E-1,-2.0210978E-1,7.9222634E-2,-2.5399873E-1,4.845077E-2,8.875679E-2,-3.4569185E-2,-1.1649233E-1,2.6341163E-2,-2.5678046E-2,1.2876502E-1,1.1656256E-1,9.355377E-3,-1.2134821E-1,1.2371377E-1,8.414482E-2,-1.4209862E-1,1.17004655E-1,-5.2365575E-2,5.7501357E-2,-6.313918E-2,1.3310765E-1,-5.9113326E-3,4.1748557E-2,-8.406443E-2],"split_indices":[4,3,1,2,0,2,1,3,4,1,1,0,0,4,3,4,3,3,0,0,0,2,0,4,0,3,0,4,4,0,0,1,0,1,0,0,4,0,0,2,0,0,3,0,3,0,1,0,0,0,0,0,0,0,0,0,0,0,0,0,0,0,0,0,0,0,0,0,0,0,0,0,0],"split_type":[0,0,0,0,0,0,0,0,0,0,0,0,0,0,0,0,0,0,0,0,0,0,0,0,0,0,0,0,0,0,0,0,0,0,0,0,0,0,0,0,0,0,0,0,0,0,0,0,0,0,0,0,0,0,0,0,0,0,0,0,0,0,0,0,0,0,0,0,0,0,0,0,0],"sum_hessian":[2.4519205E2,1.7792159E2,6.7270454E1,1.4660382E2,3.1317774E1,2.8856893E0,6.4384766E1,1.297315E2,1.6872309E1,2.5383978E1,5.933795E0,1.7430952E0,1.1425942E0,2.0544E1,4.3840763E1,6.1644405E1,6.80871E1,1.5571525E1,1.3007838E0,1.2012152E1,1.3371826E1,4.0561004E0,1.8776946E0,1.0872565E1,9.671435E0,3.242444E1,1.1416323E1,4.790829E1,1.3736115E1,6.267732E0,6.1819366E1,1.1580742E1,3.9907825E0,1.0912243E1,1.0999093E0,1.8065248E0,1.1565302E1,1.0499953E0,3.0061052E0,4.05623E0,6.816335E0,6.346927E0,3.324508E0,2.4109243E1,8.315196E0,2.6972666E0,8.719056E0,1.089507E0,4.6818783E1,1.1240631E0,1.2612053E1,1.5678518E0,4.69988E0,5.5145817E1,6.673551E0,1.1506354E0,1.0430107E1,6.9275255E0,3.9847171E0,1.0050557E1,1.5147443E0,1.3154187E0,2.7408113E0,1.086505E0,5.260422E0,2.2083044E0,1.1162034E0,5.2891617E0,1.8820082E1,4.5492644E0,3.7659314E0,4.8300924E0,3.8889635E0],"tree_param":{"num_deleted":"0","num_feature":"8","num_nodes":"73","size_leaf_vector":"1"}},{"base_weights":[-2.4435773E-1,-4.0135083E-1,4.058655E-2,-4.5088178E-1,-2.7008776E-2,-1.2577465E-1,2.0363395E-1,-1.5258415E-1,-2.9228264E-1,-2.5377688E-1,1.0043785E-1,3.357795E-1,-4.2621803E-1,-1.7505509E-1,5.2447133E-2,8.369539E-3,-1.1249662E-1,1.3238606E-1,5.0136477E-1,-8.46022E-3,-1.8401876E-1,-1.2471946E-1,1.2762913E-1,-1.0917813E-1,3.505931E-1,1.701416E-1,6.630717E-2,2.3933813E-2,1.3334031E-1],"categories":[],"categories_nodes":[],"categories_segments":[],"categories_sizes":[],"default_left":[0,0,0,0,0,0,0,0,0,0,0,0,0,0,0,0,0,0,0,0,0,0,0,0,0,0,0,0,0],"id":44,"left_children":[1,3,5,7,9,-1,11,-1,13,15,-1,17,19,-1,21,-1,-1,23,25,-1,-1,-1,-1,-1,27,-1,-1,-1,-1],"loss_changes":[2.4085076E0,6.288247E-1,1.5777462E0,1.3031149E-1,5.03678E-1,0E0,1.422198E0,0E0,1.0829649E0,1.3699335E-1,0E0,3.8027453E-1,2.1407753E-1,0E0,1.1752996E0,0E0,0E0,9.192891E-1,2.830863E-3,0E0,0E0,0E0,0E0,0E0,1.0658008E-1,0E0,0E0,0E0,0E0],"parents":[2147483647,0,0,1,1,2,2,3,3,4,4,6,6,8,8,9,9,11,11,12,12,14,14,17,17,18,18,24,24],"right_children":[2,4,6,8,10,-1,12,-1,14,16,-1,18,20,-1,22,-1,-1,24,26,-1,-1,-1,-1,-1,28,-1,-1,-1,-1],"split_conditions":[2.07E2,6.05E1,4.63E1,5.63E1,1.83E2,-1.2577465E-1,1E0,-1.5258415E-1,1E0,1.304E3,1.0043785E-1,2.17E2,1.371E3,-1.7505509E-1,1.89E2,8.369539E-3,-1.1249662E-1,5.06E1,3.008E2,-8.46022E-3,-1.8401876E-1,-1.2471946E-1,1.2762913E-1,-1.0917813E-1,5.28E1,1.701416E-1,6.630717E-2,2.3933813E-2,1.3334031E-1],"split_indices":[4,3,3,3,4,0,7,0,6,2,0,4,2,0,4,0,0,3,0,0,0,0,0,0,3,0,0,0,0],"split_type":[0,0,0,0,0,0,0,0,0,0,0,0,0,0,0,0,0,0,0,0,0,0,0,0,0,0,0,0,0],"sum_hessian":[5.2476173E1,3.3571224E1,1.890495E1,2.9467745E1,4.10348E0,4.537292E0,1.4367656E1,1.9985764E1,9.481982E0,2.7060013E0,1.3974787E0,1.2261942E1,2.1057146E0,4.7643166E0,4.7176657E0,1.0457338E0,1.6602674E0,6.310305E0,5.951637E0,1.0415701E0,1.0641446E0,2.0410604E0,2.6766055E0,1.7231603E0,4.587145E0,3.9919972E0,1.9596394E0,1.6569504E0,2.9301944E0],"tree_param":{"num_deleted":"0","num_feature":"8","num_nodes":"29","size_leaf_vector":"1"}},{"base_weights":[-1.8211122E-1,-2.4539913E-1,2.313896E-1,1.2056334E-2,-3.3743733E-1,-8.064962E-2,3.5216892E-1,1.2715068E-1,-6.128524E-2,-1.4470974E-1,-1.3329616E-1,-7.510181E-2,3.2968555E-2,1.5706636E-1,1.3884862E-1,-3.5610867E-1,1.2072749E-1,-4.5052433E-1,3.4724486E-1,1.01299316E-1,-1.4943506E-2,-1.7208344E-1,2.2325318E-2,2.232114E-1,-4.420271E-2,-1.5203473E-1,-1.7331773E-2,1.5907018E-1,2.007169E-1,-8.851491E-2,7.936352E-2,-6.701023E-2,1.6028911E-1],"categories":[],"categories_nodes":[],"categories_segments":[],"categories_sizes":[],"default_left":[0,0,0,0,0,0,0,0,0,0,0,